0.494658 -0.685948 0.737631 0.333837 -0.117492 0.509402 0.696912 -0.624488 0.760178 -0.607824 0.666664 -0.874512 -0.701236 0.787242 0.3706 0.790486 -0.20519 0.097941 -0.544592 -0.485718 0.327419 0.771554 -0.928284 0.978498 -0.833537 0.0840593 0.602158 0.582641 0.881059 0.378908 0.216442 0.912475 -0.209427 0.976386 -0.919156 0.944214 -0.420027 0.690178 0.384862 0.666042 0.62176 0.325703 -0.840303 0.671175 0.312583 0.0545259 -0.557142 -0.73247 -0.680044 0.192132 0.892469 -0.740782 0.411166 -0.585007 0.372677 0.87973 -0.72736 -0.0697863 0.892859 0.346787 0.583696 -0.0747045 0.557937 -0.0320635 -0.442732 -0.212388 -0.253133 0.69239 -0.765407 -0.108378 -0.271869 -0.319375 -0.144818 -0.296571 0.91962 0.70192 0.125467 0.205331 0.396786 0.831279 -0.298871 0.457566 0.694727 0.00974271 -0.0143677 -0.134307 0.986783 0.383119 -0.280407 0.819548 -0.689907 0.0629176 -0.184747 0.81393 -0.472771 0.988218 -0.46451 -0.0380896 0.882483 0.381098 0.302473 -0.753 0.405095 -0.172107 -0.156455 -0.940225 0.357618 0.149143 -0.694726 0.65108 0.215021 0.918007 -0.624011 -0.545801 -0.107636 0.78277 -0.145946 0.572571 0.336525 -0.118394 0.75521 -0.865504 -0.179199 0.890674 -0.124536 -0.832686 -0.426667 0.301102 -0.354267 -0.608985 0.973335 0.287377 0.933501 0.673215 0.834379 -0.0317396 0.450346 0.641431 -0.915981 0.770036 -0.333096 0.279179 0.508262 0.570835 -0.0754613 -0.460336 0.436558 0.907793 0.0118376 -0.760767 -0.342377 0.534974 -0.963048 -0.402605 -0.672778 0.597511 -0.469705 -0.378647 -0.793183 0.591255 -0.867327 0.476509 0.14128 0.763215 -0.980381 0.900295 0.759494 0.634396 0.362463 0.819132 0.900025 0.320036 -0.317664 0.530368 0.997203 -0.172617 -0.30991 0.722465 0.771114 -0.851543 0.337147 0.366566 0.35503 0.909929 -0.917463 0.599651 0.421631 -0.290377 0.356565 0.630134 -0.616042 -0.376269 0.0988706 -0.865767 0.495329 -0.776057 -0.472562 -0.92862 -0.230498 -0.949338 -0.498999 -0.313425 -0.70876 -0.827346 -0.782087 -0.0514254 -0.437415 0.72525 -0.576735 -0.293372 -0.0465588 0.499501 -0.841988 0.075482 0.184512 -0.545133 0.383427 0.443427 -0.84757 -0.350809 0.48128 0.126835 0.325244 -0.462401 0.571203 -0.784264 -0.40838 0.527577 -0.626305 0.164885 -0.867987 0.710108 0.1295 -0.983408 -0.527315 -0.0305902 0.4656 0.676742 0.829861 0.617027 0.0729045 -0.707155 -0.228744 -0.907662 -0.809786 0.477025 -0.222505 -0.743226 0.111503 -0.0284244 -0.562391 0.470731 -0.129006 -0.0735849 -0.527723 0.866996 -0.396612 0.429519 -0.879568 -0.262069 0.815419 0.282103 -0.892534 -0.328083 0.206668 -0.924141 -0.243723 0.822632 -0.233224 0.0970537 -0.690603 -0.0917374 0.688904 -0.47518 0.158597 0.425309 0.621787 0.45504 -0.3242 0.14851 0.17393 