0.899494 0.136811 -0.0316259 0.534287 0.599372 0.530039 0.0476162 -0.28958 -0.823462 -0.50352 -0.0475101 -0.915404 0.961665 0.473135 0.0367888 0.100305 -0.673333 -0.451599 0.142322 -0.422693 0.330035 0.545649 -0.987077 -0.411184 -0.0314006 -0.523472 -0.936903 -0.640222 0.686483 0.285685 0.49524 -0.474377 0.786149 0.429386 0.427876 -0.332569 -0.904426 0.142761 0.729233 -0.967714 -0.880863 -0.207627 -0.197237 0.75424 -0.785017 -0.426147 0.840349 0.514313 -0.393684 0.12651 -0.570214 0.0853283 0.437836 0.733949 0.341766 0.0107751 -0.415887 -0.239761 0.770541 0.999371 -0.0485324 -0.77401 -0.177506 -0.826447 -0.742626 0.514241 0.305588 0.387651 -0.00705034 0.570719 0.640065 -0.833037 0.579497 0.360016 -0.828882 -0.418788 0.668664 0.147284 0.971799 -0.972927 0.347248 0.638001 0.151313 0.218556 -0.745586 0.147248 -0.578615 0.870789 -0.680016 -0.0536211 -0.180632 0.844517 -0.779003 0.0761592 0.679954 0.807509 0.955068 -0.122626 -0.987833 -0.0399109 -0.356442 0.422714 -0.7682 -0.914515 0.483414 -0.540377 -0.795444 0.705926 0.072525 0.953294 -0.351869 0.295872 0.067236 0.43504 -0.61824 -0.816238 -0.304903 0.865137 -0.936882 -0.834841 0.873056 -0.634235 0.361911 0.677994 0.0798168 -0.147388 0.720984 0.306646 0.737133 -0.10963 -0.767188 -0.126192 -0.853075 0.974196 -0.0581314 -0.491968 -0.507571 -0.912671 -0.127826 -0.916546 -0.8008 0.189123 0.868651 -0.740714 -0.741561 0.344943 -0.266479 0.192546 -0.940885 -0.520743 -0.579891 0.00839019 -0.801518 -0.19438 -0.649708 -0.64413 0.595176 0.207819 -0.197093 -0.832629 -0.979474 -0.309121 0.0635417 -0.394857 0.649635 0.732827 0.388423 -0.0612249 0.162546 -0.378422 0.573074 -0.212141 0.529499 0.516929 -0.225522 0.985953 0.316873 -0.0741579 -0.257874 0.208846 0.661481 0.00145128 -0.733543 -0.953696 -0.391339 -0.191671 -0.425434 -0.154152 -0.227702 0.76751 -0.399714 0.975563 0.0887577 -0.698175 0.277826 -0.414379 -0.747387 0.131444 0.919015 0.978548 -0.236342 0.476729 0.0249645 0.830768 -0.377657 -0.0313035 -0.784309 -0.256179 0.0212549 -0.184763 -0.815086 -0.263534 0.257544 0.573788 -0.762042 -0.682925 -0.469819 -0.355912 -0.508327 0.465784 0.240511 -0.20637 -0.240862 -0.635297 0.0996019 0.501537 0.194466 -0.656186 -0.800115 -0.926195 -0.692015 0.555427 -0.189592 -0.396109 0.673315 0.986143 -0.3018 -0.892954 -0.344099 -0.424061 -0.20204 -0.521652 0.441815 0.366606 0.551142 0.719506 -0.782008 -0.726667 -0.642035 -0.194968 0.535604 -0.183501 -0.679478 -0.496324 -0.728193 -0.557867 0.309209 0.250149 0.109181 0.00864336 -0.111819 0.42605 -0.553793 0.22474 0.951297 0.577793 0.296108 -0.808494 0.736408 0.875474 -0.656525 -0.797903 0.664434 0.559722 0.563863 0.969143 -0.807755 -0.420664 -0.546827 0.944443 -0.917274 -0.817872 -0.51264 -0.52004 -0.54945 0.538603 0.91288 -0.292871 0.647821 0.563338 -0.893852 