-0.490005 -0.864729 0.825394 -0.0341546 -0.67118 -0.0812615 0.527354 0.463178 0.695544 -0.705825 0.772115 -0.0871403 -0.329797 0.774804 0.375622 0.448294 -0.688563 0.0305347 0.470532 0.317835 0.269683 -0.454002 -0.387303 -0.297235 -0.120829 0.298021 -0.64465 -0.667121 -0.323973 -0.383789 0.904395 -0.556133 0.0697264 -0.0602441 -0.596809 -0.225017 -0.961172 0.800904 0.0186015 0.128779 0.32141 0.6359 0.546079 0.759687 0.636108 0.523652 -0.271067 0.417661 0.214173 -0.921916 -0.920139 -0.206257 0.77787 0.79882 0.375995 -0.0652477 0.294268 -0.253746 -0.686675 -0.321941 0.598742 -0.497732 -0.0485534 -0.555104 0.857799 -0.964567 -0.594205 0.50939 -0.355962 -0.377109 -0.427907 0.0682357 0.703195 0.149364 -0.457801 0.632071 -0.9138 -0.807463 0.0856267 -0.204516 0.3554 -0.177312 0.40788 0.98117 0.158678 0.415737 -0.0442404 0.00774738 0.455706 -0.430591 -0.659038 0.437889 0.74206 0.807903 -0.10919 0.516488 -0.450771 -0.163303 -0.338873 -0.56702 -0.544438 0.764025 -0.743277 -0.487072 0.534031 -0.717913 0.857422 -0.455846 0.707699 0.508219 -0.289664 -0.814375 0.718803 0.701941 0.992938 0.401455 0.0792447 0.944517 -0.44024 -0.872796 -0.602496 -0.528907 0.430219 -0.103195 0.153258 0.64133 0.617853 -0.290579 0.762942 -0.490975 0.885907 0.644347 -0.97544 0.724074 -0.0443499 0.690784 -0.65703 -0.330848 0.985401 0.456576 -0.1148 -0.557675 -0.317274 -0.543404 0.378115 -0.938067 -0.96775 -0.777377 -0.21167 0.0671574 0.0703027 -0.893638 0.80646 -0.336017 0.0124246 0.72892 -0.279327 0.572768 -0.719319 -0.0888455 0.499232 0.668505 0.841983 -0.421207 -0.163325 -0.102654 0.508088 -0.839752 -0.24188 -0.588844 -0.08324 -0.966961 -0.442628 -0.0165104 -0.163407 0.501888 0.145694 0.383618 -0.0900234 0.922507 0.363219 0.979431 0.0257817 0.580768 0.436499 0.364873 -0.0335707 0.0890883 -0.274947 0.00647876 -0.149742 0.338206 -0.177046 -0.433946 0.975476 0.164154 -0.0162076 -0.670621 -0.865808 -0.609926 0.784117 -0.483574 0.525064 0.409628 -0.717821 -0.996925 -0.559527 0.276345 -0.434591 -0.287341 -0.478643 -0.900414 -0.766529 -0.755381 -0.838777 0.767122 -0.509119 -0.492867 0.332786 -0.391079 -0.307124 -0.523458 0.907351 0.942118 -0.535352 -0.849599 0.0539079 0.0181491 -0.781663 0.816152 -0.141496 0.701418 -0.392846 -0.476203 -0.691408 0.357317 -0.0161265 0.0551665 0.97957 0.825312 0.725042 0.586269 0.391085 0.0415509 0.343053 -0.157643 -0.245965 -0.399706 -0.727685 0.059424 0.510534 -0.327437 -0.160769 0.423759 -0.314207 -0.680077 0.719193 0.185784 0.838701 -0.25473 0.441702 -0.130468 0.315252 -0.884065 -0.977213 -0.668233 0.906223 -0.202136 -0.900104 -0.300764 -0.648797 0.0203422 -0.0500723 0.590571 0.624599 -0.214736 -0.868991 -0.305173 -0.629889 0.179667 0.0852831 0.540154 0.302338 0.00191259 0.0272667 0.799494 -0.473403 -0.424131 -0.321525 0.607756 -0.318743 