0.287234 0.153486 -0.945521 0.415388 -0.113075 -0.184487 0.554619 0.859736 -0.888389 -0.484517 0.419615 -0.957447 0.234115 0.981816 0.316015 -0.0346967 -0.0164382 -0.234048 0.490958 0.728882 -0.251454 0.598482 -0.355538 0.710177 -0.61977 0.507147 0.0897105 0.83764 0.613141 0.343275 0.770954 -0.737551 -0.296891 0.634063 0.473669 -0.500404 0.975558 -0.591914 -0.131066 0.216134 0.0262772 0.473539 0.161659 0.429085 -0.560329 0.46511 -0.187053 -0.927381 -0.569642 0.838821 0.755247 0.766915 0.744915 -0.909075 0.371568 0.464719 -0.737088 -0.645638 0.245476 -0.0342255 -0.665541 0.751746 -0.270479 -0.70639 -0.640665 -0.935789 -0.767751 -0.604786 -0.809746 0.300976 0.770894 -0.612472 0.897038 0.249063 0.935854 0.983203 -0.860542 -0.496047 -0.242776 0.431181 -0.424721 -0.315782 0.859261 -0.871046 -0.399522 0.20201 0.943176 -0.6018 -0.368653 -0.370716 -0.460815 -0.856153 -0.574155 -0.363384 -0.408048 0.974783 0.442091 0.750085 0.454855 -0.0140108 0.737212 0.650549 0.489128 -0.182174 -0.6654 0.425276 0.415368 -0.273751 -0.341582 -0.293499 -0.246731 -0.444523 -0.163351 -0.53886 -0.199686 0.217569 -0.0640943 -0.182955 0.619227 0.590349 -0.564635 -0.314327 -0.377116 0.654358 0.467385 -0.827334 0.45566 -0.82696 0.541593 -0.0970267 -0.954522 0.260245 -0.53384 -0.265925 0.388677 -0.761025 0.135394 0.354548 0.555522 0.14546 0.73648 0.170261 -0.328177 -0.64757 -0.681487 0.00859508 -0.4717 -0.888234 0.774611 0.776688 -0.138768 0.915274 -0.0711668 -0.419959 -0.457043 -0.682541 -0.063656 0.0802047 -0.643714 -0.847275 0.248187 0.165916 0.263791 0.0578923 -0.314458 0.289826 0.760132 0.564187 -0.87314 0.814283 0.26117 0.983445 -0.897582 0.771293 0.717662 -0.0578137 -0.836007 -0.373782 0.386194 0.173454 -0.68829 -0.980956 -0.988469 0.825554 0.904155 -0.36794 -0.597086 0.816063 -0.648946 0.957853 0.762317 -0.437586 -0.225125 -0.789707 0.873327 -0.341606 0.864704 -0.798011 0.309182 -0.577699 0.848876 