-0.609819 -0.713419 0.120299 -0.0792065 0.0416854 0.0938401 0.429717 -0.36826 -0.0170617 -0.228314 -0.968194 -0.569571 -0.0505762 -0.281603 -0.848555 0.925576 0.336345 0.250901 0.991561 0.840959 -0.375124 0.902465 -0.384246 -0.00304185 0.663059 -0.208839 0.327082 0.0383832 0.228523 -0.552669 -0.443477 0.184572 0.945758 -0.219198 -0.575182 -0.665879 -0.420935 0.0797503 -0.791668 -0.309588 0.0545777 0.0657742 0.872357 -0.932248 -0.798394 -0.154761 0.189667 -0.915197 -0.966314 0.848166 -0.718803 -0.149432 0.397941 0.129053 -0.975369 0.142623 -0.248731 -0.561912 0.188377 -0.243968 -0.521696 0.791053 0.141093 0.064133 -0.928502 0.224642 0.674273 0.0672524 -0.391127 0.381152 0.363002 0.608314 -0.987859 0.367811 -0.982827 -0.95555 -0.0121967 -0.898817 0.856371 0.0107777 -0.223756 -0.972847 -0.0391973 -0.263429 0.977606 -0.94705 0.262641 -0.347823 -0.453042 0.744186 0.0941849 0.0871756 -0.854711 0.980292 -0.962237 -0.153238 -0.326083 -0.14085 -0.803429 -0.405101 0.170718 0.312439 -0.0971909 -0.544145 -0.377978 -0.217922 0.660754 -0.53862 0.902333 0.542441 -0.656233 -0.492994 -0.304339 0.845284 -0.890393 0.0229775 -0.400977 0.845858 -0.752928 -0.449894 0.686047 -0.934241 -0.828252 -0.357604 -0.203611 0.670724 0.533492 -0.418818 -0.611324 -0.160144 0.271788 -0.314417 -0.990684 0.213172 0.166098 0.276539 0.227191 -0.515825 0.705686 0.990416 0.0284514 -0.835733 -0.920307 -0.457073 -0.286163 -0.420249 -0.873387 -0.600779 -0.902125 0.338727 -0.538808 -0.796661 0.198857 0.50837 -0.440374 0.369251 0.154642 -0.0976661 0.608877 -0.295789 0.810393 0.827332 0.740535 -0.29516 -0.271235 -0.331164 0.970082 0.882948 -0.0536817 0.671651 0.760049 -0.384699 0.568459 0.282958 0.781349 0.9852 -0.489273 -0.717023 -0.420696 -0.54681 -0.97141 0.980794 -0.663698 -0.816918 -0.30297 -0.635153 -0.064215 0.75633 -0.612257 -0.357156 -0.568085 0.560181 0.287799 0.640336 -0.346963 0.960016 -0.632032 0.810164 0.543123 0.605655 0.927464 0.0853261 -0.0345617 0.103722 -0.548509 -0.608764 0.398949 0.566009 0.598909 -0.266722 0.710141 -0.838605 0.740226 0.514809 -0.318174 -0.112434 -0.692256 0.93619 0.0961344 0.140278 -0.981439 -0.562349 0.235548 -0.546244 -0.427732 0.23326 -0.34022 0.0568895 -0.310469 0.403732 -0.304842 0.973705 0.328365 0.00607219 -0.087409 0.452694 -0.787624 -0.0800792 -0.347056 -0.58096 0.650803 0.219286 0.464869 -0.677584 -0.569269 0.525895 0.578493 -0.158678 0.513799 -0.300543 -0.192298 -0.278236 0.117212 0.67383 0.242855 -0.363537 0.914908 -0.857795 0.909953 0.600261 0.853263 -0.593665 0.289188 0.278234 -0.736084 -0.444608 -0.0399348 0.422233 -0.0329054 -0.0599067 0.585437
