-0.267986 0.0431351 -0.15555 -0.649336 -0.525302 -0.266979 0.545092 0.13969 -0.132288 -0.378704 -0.700333 -0.278936 -0.943575 0.188082 0.228404 0.113094 0.276719 0.342221 0.141271 0.553854 -0.519226 0.233904 0.572996 0.483058 0.460591 -0.00950859 -0.205736 -0.504265 0.66912 0.511372 -0.433529 0.249818 0.648205 -0.577914 0.632621 -0.274804 -0.0635447 -0.708499 0.43743 -0.829987 -0.482551 0.976107 0.796018 0.387808 -0.879431 0.956942 -0.993509 0.666803 0.214496 -0.407281 0.900731 0.459339 -0.297501 -0.273622 0.834067 0.715019 -0.898482 -0.670147 0.779762 -0.34119 0.324981 0.731781 0.58747 0.150698 -0.558196 0.8408 0.575888 0.258288 -0.596583 0.75914 -0.639586 -0.738707 -0.300964 0.61594 -0.272144 0.939236 -0.147349 0.564756 0.725518 -0.228308 -0.240648 -0.478919 0.604943 -0.655037 -0.578138 -0.77796 0.255164 0.0383586 0.399426 0.404773 -0.045225 0.143945 -0.496345 -0.316327 -0.0296679 -0.0824202 -0.0601791 0.287625 0.0102039 0.747934 0.0390496 -0.942953 -0.724356 -0.305653 -0.266705 -0.540784 0.0749964 0.0834799 -0.767716 -0.151995 0.430205 0.859256 0.314761 0.644839 -0.204794 -0.113156 -0.231909 -0.16244 0.516703 -0.430524 -0.827969 0.310718 0.31987 0.390668 -0.764323 -0.505949 0.16308 0.398638 0.243074 0.358273 -0.275032 -0.625092 0.159304 -0.270848 -0.432335 0.0300091 -0.649364 0.560325 -0.977313 -0.507273 -0.0792964 -0.799036 0.125404 -0.211009 -0.0801106 0.221488 -0.637867 0.396676 0.669692 -0.739694 -0.630421 0.231688 -0.831159 0.79696 0.113064 -0.338419 0.627333 -0.81694 -0.886571 -0.92138 -0.93781 0.341693 -0.308581 -0.809917 -0.371702 -0.414959 0.93341 0.179286 -0.0189868 -0.231613 -0.523263 0.971251 0.144914 0.207597 -0.703524 0.581241 -0.609499 0.118464 0.652189 0.553255 -0.374726 0.38954 -0.0194381 -0.494283 0.490365 0.021535 -0.636499 -0.269509 0.201194 0.180228 0.290104 0.343552 -0.860216 0.630891 0.835299 -0.405287 0.869595 0.474428 -0.447522 -0.856957 -0.789545 0.610563 -0.918953 0.0133038 0.012812 0.644068 -0.632872 -0.580493 0.212798 -0.856524 -0.894695 -0.787565 -0.84457 0.146397 -0.229084 -0.0504242 0.593368 -0.227809 0.870156 0.535729 0.673461 -0.485066 0.647674 -0.261439 0.266412 -0.927094 0.559456 -0.0145756 -0.916748 0.88273 -0.873031 -0.0755234 -0.976775 0.909616 -0.586683 0.223339 -0.0259073 -0.0560267 -0.317189 0.139594 -0.0165577 0.0696021 -0.757411 -0.663024 0.809785 0.891308 -0.120739 -0.987758 -0.550405 0.151801 -0.317928 -0.320805 -0.34815 -0.081795 0.155763 0.601137 0.60038 -0.930541 0.900794 0.235538 -0.421377 -0.726894 0.825418 -0.430595 -0.834842 0.573366 0.0856296 -0.404026 0.0461081 -0.833336 -0.866864 0.909851 0.103373 0.204486 0.899144 -0.833164 -0.0687469 0.739045 -0.805071 0.403581 0.649623 0.301485 -0.883999 -0.715901 0.312098 -0.392666 -0.274176 0.536034 0.513408 0.0377442 0.972593 