-0.317619 -0.409658 0.700781 -0.603793 -0.263505 0.343164 -0.0719729 -0.746525 -0.0464208 0.311639 0.0703846 -0.179674 0.897944 -0.0106935 -0.944504 -0.472161 -0.977619 0.344617 -0.147941 0.805796 -0.512262 -0.52148 -0.387561 -0.903976 0.862947 0.534795 0.879625 0.668816 0.297488 0.502779 -0.734569 0.385439 -0.181477 -0.0540693 0.0367828 0.31514 0.375791 -0.938453 0.218392 -0.244339 0.0592713 0.842 -0.487073 -0.96866 0.016911 -0.825151 -0.124193 0.193977 0.363221 -0.134056 -0.862286 -0.24564 0.334496 0.785401 0.330907 -0.377874 -0.404967 -0.923642 -0.374471 0.152873 -0.935353 0.2506 0.192408 0.169394 0.215081 0.896156 -0.112471 0.262795 -0.709008 0.563143 -0.930786 0.916883 -0.0398505 0.359509 -0.434124 -0.199647 -0.41153 0.653432 -0.0410169 -0.646011 0.850421 0.93452 -0.640813 0.418389 -0.11141 -0.325672 0.836136 -0.252121 0.238426 0.25718 -0.487054 -0.220647 -0.772527 -0.572145 0.368818 -0.409189 -0.400087 -0.846907 0.391173 -0.784083 -0.662233 0.722613 0.713545 0.223078 0.0930126 -0.928359 -0.548554 -0.509574 -0.870529 0.824033 0.478696 0.990936 0.623061 -0.568074 -0.537109 -0.486388 0.131775 -0.497375 -0.746104 -0.297413 -0.221064 0.206134 -0.383131 0.964644 -0.272783 0.742449 0.569016 0.20537 -0.355686 0.74829 0.633603 0.270177 0.219673 -0.644821 -0.616951 0.43122 -0.391783 -0.999354 0.971402 -0.496175 0.187807 0.512036 -0.966672 0.215562 0.16028 -0.627028 0.350074 -0.0869402 0.563936 0.646189 0.320885 -0.317892 0.285579 0.0111432 -0.0905093 0.837507 0.0109379 0.18493 0.738199 -0.205054 -0.417533 0.889904 -0.47241 0.260576 0.133348 0.642026 -0.150822 -0.566773 0.311606 0.36822 -0.996324 0.477114 -0.581214 -0.369772 0.574243 0.308897 -0.520696 -0.204968 0.934446 0.19578 -0.160332 0.728298 0.0840726 -0.152461 -0.534991 -0.768743 -0.934185 -0.257017 -0.478273 0.895726 -0.667291 -0.488579 0.225886 -0.502004 -0.268843 -0.657156 -0.792719 -0.5701 -0.249491 0.936066 0.35361 0.795479 -0.653614 -0.600952 -0.0564446 -0.480483 0.217488 -0.206736 -0.810646 0.850152 -0.594777 -0.973154 0.839182 0.464606 -0.435936 0.842889 0.041196 -0.919105 0.561612 0.448093 0.815133 0.951059 -0.0897149 -0.55436 -0.270387 0.682006 0.746118 -0.763387 -0.993661 -0.994787 -0.843494 -0.170474 0.0337193 0.747661 0.810556 -0.423795 0.766414 0.28725 0.688846 -0.494095 -0.952124 -0.980098 0.895661 -0.347321 0.89056 -0.993556 -0.39054 -0.490585 -0.532776 -0.211497 -0.19954 -0.340064 -0.990164 -0.0504887 0.0835594 0.894319 0.147013 -0.943016 -0.0313987 0.269737 0.272078 0.142983 0.724968 -0.844359 -0.208297 0.809159 -0.660159 0.490775 -0.575124 0.447188 0.998218 -0.843639 -0.464629 -0.643911 0.829251 -0.852595 0.39728 0.663458 -0.741886 0.309222 -0.45442 -0.576311 -0.176528 0.489685 0.724111 -0.326241 -0.297182 -0.717071 -0.859841 0.455126 0.280865 -0.206393 -0.676317 0.190594 0.994398 -0.743577 0.619243 -0.227895 0.772743 0.474212 0.364563 -0.260597 0.575551 0.75753 -0.341577 0.495669 -0.431812 -0.910533 -0.357272 -0.615471 -0.600746 -0.0297463 -0.0366678 0.469357 0.374434 -0.535095 0.342038 -0.202524 0.153654 -0.434757 -0.0599899 -0.225994 -0.431693 -0.81835 -0.218275 0.537629 0.691274 -0.689127 -0.246547 -0.552178 -0.0523172 -0.933852 -0.367686 -0.235656 0.286431 0.231116 0.71983 0.805765 0.551841 0.64678 -0.90051
