-0.678814 0.576906 -0.497849 0.990245 0.0175109 0.767551 -0.406914 0.344517 -0.811132 0.033903 -0.200446 -0.864108 -0.765373 0.105304 -0.712231 -0.746537 -0.975625 -0.541497 -0.122619 -0.147491 -0.153804 0.783365 0.409134 -0.645391 0.516449 0.971899 -0.367553 0.920326 -0.994953 0.101055 0.714856 -0.0740946 0.830733 -0.327632 0.0415343 0.372578 0.269169 -0.894316 -0.975415 -0.0978941 0.392388 -0.903338 0.485016 0.540764 0.711686 -0.742819 0.700379 0.808717 0.918424 0.210404 0.836602 -0.438982 -0.269671 -0.718554 -0.65702 0.157263 0.259883 -0.676005 0.995886 -0.926625 -0.175109 0.0641511 0.242446 0.520502 0.196312 -0.263813 -0.515851 0.487606 -0.449356 -0.583871 -0.524823 0.96574 -0.0344047 0.714869 0.285775 0.757746 0.292034 -0.591864 -0.779739 -0.282547 -0.0145237 0.835821 0.868637 0.389905 -0.805969 0.0207102 -0.397894 0.380825 -0.93714 -0.794552 -0.983502 -0.167652 0.643519 -0.707947 0.186871 -0.420418 -0.790607 0.533489 0.526901 0.571519 -0.110036 0.833346 0.933579 -0.714209 -0.560308 0.406415 0.509582 0.969575 0.118631 -0.739143 -0.734791 -0.850716 0.0339436 0.594935 0.996178 0.813143 -0.412077 0.79841 0.108808 -0.656477 -0.573544 0.266229 0.873692 -0.279943 -0.357266 -0.757671 0.723462 0.75766 -0.0409903 0.269424 -0.640721 -0.978624 -0.197363 0.218571 -0.601547 -0.332487 -0.884002 0.852421 -0.115874 -0.0388194 -0.389394 -0.203174 0.265534 -0.660638 0.773676 0.966673 -0.0570398 0.80112 -0.336839 -0.296398 0.798876 -0.490095 0.408159 0.148388 -0.399823 -0.652387 -0.977842 -0.194989 0.427844 0.80995 0.746682 -0.696461 0.476822 0.0791764 0.931014 -0.232367 0.121631 0.293056 0.781524 -0.189673 0.722263 -0.637309 -0.88274 0.703269 -0.398402 -0.558478 -0.355183 -0.0277553 -0.246814 0.754989 0.445835 -0.539413 0.406705 0.518022 -0.0661449 0.98305 -0.756779 -0.592606 0.992642 -0.741945 -0.640103 -0.557373 -0.454368 0.670727 0.451113 -0.108201 -0.267542 -0.954587 -0.617666 -0.298599 -0.406905 0.723215 0.395248 -0.125524 -0.77127 0.360346 -0.476379 -0.301652 0.948075 -0.535007 -0.401543 0.75287 0.218418 0.962272 -0.451576 0.447433 0.00132794 0.071595 -0.960908 -0.0522869 -0.873018 0.732407 0.323121 0.140775 -0.836952 -0.905323 -0.942659 -0.789522 -0.847945 0.914404 -0.623792 -0.654439 0.0177478 -0.354576 0.397488 -0.819771 0.884745 0.249853 0.542833 0.00418 -0.333178 0.829229 0.307674 -0.840649 -0.597976 -0.974416 0.536184 0.606158 0.929644 -0.728477 -0.335114 0.547836 0.46215 0.216889 0.081712 -0.258353 -0.821753 0.919133 0.5793 0.351733 0.405994 0.818837 0.27179 -0.578021 0.0725419 -0.75473 -0.620688 -0.190916 0.73332 0.172123 -0.0160296 0.127438 0.0264044 -0.011065 0.729917 0.388163 0.142155 0.245559 0.977911 -0.141173 0.159935 0.308402 -0.875988 -0.331251 0.882258 0.258797 0.817488 -0.675211 -0.144673 0.301446 -0.912198 -0.823851 0.198686 0.199836 -0.95472 0.239806 0.73303 -0.889733 -0.805843 0.0555413 -0.35623 0.360963 -0.0857913 0.341322 0.711281 0.583027 0.614462 0.795555 0.920572 -0.210655 -0.212266 0.793873 -0.993834 0.884773 0.755804 -0.496318 -0.525856 0.347936 -0.440703 -0.0139681 -0.670726 -0.829651 0.00547695 0.746972 0.577153 0.877414 0.406508 0.472863 -0.0329976 0.453189 -0.83823 -0.928935 -0.448008 0.525931 -0.204349 -0.11229 0.212445 0.685151 -0.878227 0.413388 0.427316 0.513708 0.552645 0.533405 -0.786146 -0.679825 -0.841742 -0.473077 0.505884 0.680026 -0.755611 -0.467403 -0.172993 0.871732 -0.752357 -0.572894 0.545617 0.0885311 0.453982 0.173276 0.731586 -0.0558548 -0.599189 -0.0967127 -0.180884 -0.0572097 -0.718488 -0.2159 -0.62422 -0.683103 -0.884021 0.609298 -0.259308 -0.192148 0.0745795 -0.83182 0.401293 -0.785347 -0.605641 -0.145998 0.325232 