0.52193 0.642597 -0.0277644 0.715579 -0.343295 0.809084 -0.104721 -0.0990597 0.00388638 0.249384 0.577178 -0.921033 0.625763 0.222846 -0.667501 0.125659 -0.0574102 0.0742731 0.747843 0.854984 -0.305179 0.0447182 0.154614 -0.728342 0.0724987 -0.684675 -0.345677 0.00899113 0.402831 -0.567633 0.438419 0.881367 -0.944703 0.617383 0.628889 -0.201856 0.586836 0.907837 0.875297 0.0407167 0.389338 -0.154164 -0.346476 0.988033 -0.977443 0.868154 0.195245 -0.737473 -0.741199 -0.260362 0.761052 0.347884 -0.0926785 -0.239492 0.0914169 -0.203781 0.526653 0.145023 0.0331753 0.264762 -0.467322 0.362532 0.870853 -0.547495 -0.327768 0.991067 -0.467361 -0.113939 -0.843677 0.299836 0.546145 -0.816214 0.984318 -0.494951 -0.888273 -0.0889076 -0.961777 0.972411 -0.284799 -0.372507 0.000615783 -0.227385 0.177467 -0.324768 -0.379309 -0.391736 -0.138707 -0.429962 0.189254 -0.211239 0.450729 -0.898928 0.287971 0.074212 -0.650775 0.739054 0.340268 -0.339949 -0.785193 0.367644 0.541771 0.631525 0.974472 -0.764114 -0.26732 -0.914603 -0.242323 -0.637826 0.706753 -0.765902 -0.762845 -0.50088 -0.225954 0.370618 -0.592191 -0.636762 0.64619 -0.821402 -0.0386677 -0.108117 0.825865 -0.786345 -0.380202 0.318309 -0.505259 -0.0902605 