-0.823463 -0.120594 -0.156691 -0.997482 -0.84764 -0.847308 0.732462 -0.413127 -0.929494 -0.483455 -0.0291496 -0.688944 -0.964394 0.203084 -0.868379 0.657542 0.684279 -0.444965 -0.391217 0.392971 0.434508 -0.507657 0.960746 -0.71689 -0.412129 0.125773 -0.204273 0.742122 -0.504675 -0.016074 0.381943 0.447275 -0.19901 -0.531588 0.412191 -0.0917413 -0.0700455 -0.741488 0.403817 0.848545 0.607611 -0.773299 -0.359923 0.449154 -0.983264 -0.858974 -0.688598 -0.118471 0.34954 -0.540031 0.105351 0.346746 -0.498027 -0.248271 0.995349 -0.130489 0.999497 -0.0378877 0.0347454 0.821468 -0.688997 -0.97936 -0.300993 -0.616546 0.100468 0.380501 0.570448 0.00840086 -0.963856 0.549732 -0.693544 -0.148317 -0.197932 0.219972 0.629313 -0.411067 0.162276 -0.218918 0.354044 0.707597 -0.297159 -0.752395 0.575775 -0.635438 0.493529 0.525317 -0.792772 -0.106164 -0.825297 0.641145 0.55056 0.133665 -0.120548 0.400633 -0.363574 -0.926211 -0.804201 -0.486134 0.508469 -0.139664 -0.190497 -0.339411 -0.371001 -0.0168251 -0.859476 0.0645303 0.0765644 -0.010746 -0.70234 -0.161423 -0.0733622 0.161073 0.946517 -0.565016 0.732054 0.949741 0.365573 -0.910391 -0.203737 -0.718955 -0.97239 0.419275 0.969881 0.32042 0.103174 -0.963766 -0.959663 -0.816228 -0.3324 -0.526254 -0.81929 0.499592 -0.387915 -0.328411 0.5842 0.80683 0.163056 -0.303657 0.942943 0.19983 0.438383 0.361852 -0.602147 -0.756906 0.11997 -0.308812 0.0732271 -0.304608 0.533732 -0.356217 -0.240178 0.0236916 0.634228 0.4327 -0.233894 -0.648035 -0.86257 -0.0845395 0.516015 -0.46881 -0.456841 -0.169453 0.557568 -0.5675 0.99879 0.955264 0.188223 -0.860093 -0.500796 -0.821517 0.152416 0.984578 -0.142963 0.584096 -0.887959 0.105829 0.881166 -0.753103 -0.648162 -0.488057 0.815499 0.490674 0.143357 0.332448 -0.334105 0.845715 -0.414033 0.436431 -0.532388 0.221627 0.231318 -0.368301 0.16584 -0.906443 -0.124754 -0.644039 -0.488017 -0.874322 -0.234854 0.3604 0.483674 