-0.834795 -0.464511 0.880078 0.373874 -0.484654 0.700751 0.438105 -0.809202 0.541694 0.252355 0.606288 0.777134 0.627526 -0.141368 -0.306055 -0.227222 -0.882211 -0.507805 0.769504 -0.230963 0.936192 -0.462218 0.819642 0.134941 0.286254 -0.183564 0.948717 0.972499 0.862834 0.847984 0.808082 0.767317 -0.057208 0.794222 -0.582562 -0.732476 -0.000913571 -0.961189 -0.144868 0.0696691 -0.0741355 -0.49461 0.966216 0.771515 -0.6262 -0.894469 0.751584 0.411392 0.0946075 0.550616 0.428002 0.256513 0.196496 0.462241 0.821143 -0.334947 0.464693 0.192133 -0.485471 -0.761982 -0.567288 0.148336 -0.898024 -0.407134 0.35317 -0.222494 0.308814 -0.710671 -0.389508 0.503196 0.294595 -0.61443 0.355066 0.578376 -0.581718 0.384285 0.389375 -0.446985 -0.207059 -0.752064 -0.115275 -0.0558209 0.848043 -0.26755 0.239585 -0.368796 -0.142221 -0.32316 -0.510932 0.485756 0.599521 0.319492 -0.14109 -0.462672 0.85112 -0.303686 0.754754 -0.171586 0.211239 0.266607 -0.489946 -0.513332 0.359031 0.873138 0.464282 -0.605934 0.269766 -0.602208 0.857699 0.445963 0.271018 -0.85334 0.548525 0.677306 -0.139814 -0.736687 -0.943567 0.403492 0.101539 0.500835 0.368356 -0.707251 -0.262653 -0.608614 0.762157 0.0378301 -0.88864 0.158297 -0.577462 -0.854146 -0.783892 -0.112318 -0.194482 0.930562 -0.908338 0.497528 0.164764 0.492698 0.353937 -0.796589 0.460484 -0.545389 -0.0216956 -0.372774 -0.236794 0.303364 -0.947943 0.284035 0.640159 -0.338621 -0.480804 -0.957119 -0.177109 -0.128826 0.919704 0.897712 0.224555 -0.965903 -0.919569 0.822456 -0.950907 0.235224 0.632307 0.211747 -0.550707 -0.90311 0.0753828 0.929308 -0.136345 -0.505424 0.0178568 0.632465 0.0228347 -0.636169 0.193837 -0.112049 -0.142162 0.847449 0.302647 0.230689 -0.949539 0.473132 0.826389 -0.902695 -0.034075 -0.546244 0.38408 0.521441 -0.564922 -0.459941 -0.991497 0.228677 0.844295 -0.925323 0.487934 0.602529 -0.00697905 0.473415 -0.189518 0.309786 0.621272 0.626069 -0.415315 -0.942044 0.219343 0.211677 -0.283743 -0.662459 -0.990647 0.565668 -0.219539 0.786012 0.862216 0.212197 0.687533 0.239262 0.611242 -0.177055 0.512118 0.778945 -0.582993 0.8585 -0.577099 0.496544 -0.849 0.0685671 0.257878 0.63967 -0.98334 0.325464 0.902007 -0.523052 0.354882 -0.616146 0.733846 0.352586 -0.853822 0.095105 0.0837286 -0.727614 -0.060095 0.376038 0.494938 -0.282837 -0.188013 0.283786 0.15392 -0.300732 0.548424 0.259726 -0.426958 -0.416319 0.709149 -0.0374632 -0.646552 0.159192 -0.970964 -0.131327 -0.374594 -0.456301 0.0443766 -0.732431 0.301986 -0.562796 -0.329877 -0.986268 0.206926 0.709878 -0.574453 -0.535283 0.0778811 0.53194 0.666846 -0.329701 0.0741547 -0.67467 -0.415382 0.654715 -0.862924 0.503011 -0.87472 -0.178727 -0.511868 0.583864 -0.795185 -0.0114844 0.0653408 0.895681 0.885683 0.725183 -0.95425 -0.844026 0.42265 -0.151639 0.554451 0.637721 0.20891 0.774768 0.0416983 0.626762 0.405677 0.182396 -0.882852 -0.654815 0.687502 0.939602 -0.86654 -0.714862 0.414055 -0.217383 -0.294497 0.070325 -0.0688589 0.0118571 -0.685469 0.94082 -0.640385 -0.458223 0.837892 -0.966997 0.872002
