-0.124312 0.792672 0.274519 0.829468 0.34677 -0.321911 0.355147 0.511809 -0.630831 -0.853334 0.875883 0.051361 -0.395769 -0.700093 0.024613 0.989348 -0.762509 0.526904 0.0722562 0.862983 0.621284 -0.66684 -0.061183 -0.923664 0.100487 -0.178973 0.660929 0.0794449 0.0919425 0.920674 -0.56692 0.770203 -0.575399 -0.316098 0.723698 0.503974 0.153168 0.6305 0.792646 0.855518 0.405939 -0.120849 0.0904231 0.0594048 0.0982326 0.475337 -0.390021 -0.639776 -0.102403 0.685707 0.699143 0.557432 0.196905 0.390356 0.106498 -0.844369 0.680773 0.121178 -0.348743 0.601999 0.595845 0.867675 0.423788 0.589032 -0.90717 0.988138 0.23419 0.816959 0.150661 -0.277694 -0.337146 0.920659 0.971732 -0.952254 0.0495765 0.0772184 0.0533313 -0.0235196 0.580305 0.264662 0.387573 -0.0098026 -0.375943 0.554339 -0.847372 -0.597671 0.080131 -0.131007 0.0250505 -0.101784 0.0440367 -0.0625199 -0.233493 -0.728651 0.768834 0.660731 -0.01674 -0.292962 -0.0131504 -0.733165 0.0782021 0.312278 0.651077 0.312729 0.784117 0.81998 -0.642328 -0.510695 -0.827028 0.0790793 0.040675 0.761992 0.372914 -0.154999 0.864723 -0.54662 -0.398614 -0.315627 -0.262493 -0.156501 0.714991 0.311206 -0.370073 -0.288153 -0.533379 -0.0242072 0.196147 -0.50493 -0.236918 0.934776 0.95917 -0.728671 -0.366316 -0.47754 -0.692115 -0.1705 0.403069 0.0310523 0.303634 0.58586 -0.608101 0.231455 0.94619 -0.24233 0.567407 0.162101 -0.60336 0.201977 -0.407637 0.232166 0.51724 0.519648 0.539254 0.280192 -0.827551 -0.889664 0.883692 -0.64826 -0.22149 0.924591 0.0284108 -0.0119451 -0.10687 -0.958343 -0.00493293 0.620453 -0.758565 -0.208387 -0.877784 -0.225923 0.550712 -0.400503 0.155028 0.211249 -0.0215577 -0.255347 -0.56321 0.806881 0.904919 -0.315806 -0.183049 0.512173 -0.901699 0.555563 -0.271675 -0.603324 0.624866 -0.960653 -0.147587 -0.547162 -0.69157 -0.799213 -0.547216 -0.459879 -0.754463 -0.229155 0.778851 0.746766 -0.761766 0.242874 -0.595583 -0.672092 -0.719783 0.478868 0.869117 0.313528 -0.553174 -0.763601 0.22014 0.549041 -0.640141 -0.832036 -0.601295 0.546772 -0.76656 0.910637 0.402709 0.0749466 -0.881398 -0.82803 -0.157421 0.0518765 -0.0642946 0.995946 -0.156122 0.230921 0.273298 0.450784 -0.60139 0.977005 0.513419 -0.309907 -0.6686 0.276 0.257275 0.112292 0.64898 -0.690623 -0.691383 0.209 -0.158972 0.678696 0.59144 0.593229 -0.00387827 -0.704693 -0.420777 -0.30564 0.664862 0.326378 -0.0848463 0.589746 0.934905 -0.474729 0.288509 -0.210031 -0.163761 0.718084 -0.194128 0.213928 -0.330887 0.990689 -0.332306 0.408775 0.670104 0.237911 0.121287 0.388202 -0.360361 0.189041 0.873719 0.707117 0.950717 -0.642716 0.968426 -0.505765 -0.274029 0.781516 0.542532 -0.426641 -0.410215 -0.100445 0.0513154 -0.30978 0.338879 -0.661892 0.320283 0.941847 0.83894 0.212857 -0.577763 0.245224 -0.805064 0.333642 -0.117528 0.241856 -0.313765 0.189817 -0.755256 0.854386 -0.0640809 -0.256081 -0.227496 -0.608146 -0.667791 -0.0567161 0.513617 0.453882 -0.21608 -0.428263 0.14892 -0.524205 0.938437 -0.126124 0.745369 -0.653036 -0.803964 0.643102 -0.265429 -0.728812 -0.218463 0.769243 -0.866923 -0.857711 -0.0984291 0.628805 -0.867744 -0.0647323 0.419661 -0.0919209 -0.515002 -0.397757 0.687716 -0.67082 -0.455987 0.351297 -0.0814689 0.173405 0.626926 -0.778087 0.892518 -0.709092 -0.168441 0.980779 0.793702 -0.0116069 0.257815 -0.916013 0.137608 0.739434 -0.492024 -0.961553 0.649024 -0.708482 0.590158 0.469253 0.721014 0.585384 0.311769 -0.981944 -0.7035 -0.915112 -0.397678 0.308397 -0.0419492 0.175975 -0.54829 -0.232346 -0.519443 -0.498056 0.234045 0.170764 0.930278 -0.0517081 -0.188455 -0.266039 -0.0712447 0.25891 0.849275 -0.946985 0.844576 