0.368433 0.166343 0.526379 -0.147552 -0.519045 0.909593 -0.972524 0.736747 -0.949593 -0.147655 0.450972 0.224705 0.278564 0.497595 0.744395 0.697635 -0.422822 -0.430324 0.89009 0.31896 0.855501 0.89404 -0.00284999 -0.330159 -0.0264607 -0.251206 -0.690055 -0.126948 -0.463718 -0.584345 -0.504169 0.814026 0.654242 -0.971142 0.312627 -0.616674 0.736799 -0.691608 0.624307 -0.920851 -0.949481 -0.827937 0.829574 -0.569065 -0.456785 0.808647 -0.384899 0.583228 -0.288163 -0.509988 -0.519181 -0.0776234 0.327803 -0.959133 0.647304 -0.0231707 0.735664 -0.243775 -0.0361106 -0.148711 0.610889 0.144734 -0.576887 -0.332186 -0.914519 -0.691895 0.122148 -0.853508 -0.583898 -0.500011 0.595603 0.957893 0.580478 0.733324 0.488611 -0.223797 -0.793762 0.62286 0.733512 0.065018 0.485649 -0.45804 -0.579573 0.982957 -0.816498 0.275241 -0.378752 0.72712 -0.819552 -0.188051 -0.21762 -0.797556 -0.17189 0.225707 0.438613 -0.568699 0.299251 0.869301 -0.706727 0.612018 -0.130306 0.679427 -0.247467 0.864976 0.586331 -0.610807 0.103201 -0.640553 -0.0688993 -0.311247 -0.362065 0.538467 0.194944 0.631039 -0.0372105 -0.039753 0.112398 -0.871209 0.775153 0.908734 0.439796 -0.767183 0.0573085 0.75429 0.334254 0.910028 -0.943914 0.716539 -0.54009 0.461162 0.36549 -0.943511 0.818136 0.157628 -0.864907 0.648707 0.818866 0.318909 0.345202 0.265481 -0.338653 0.159687 -0.734457 0.957972 -0.0681728 0.159716 -0.0355486 0.706323 -0.740705 -0.157532 0.794347 0.532179 0.918624 -0.792334 0.553066 -0.620803 -0.836922 0.303447 0.800932 0.822114 -0.784468 -0.847775 -0.819512 0.331061 0.896205 0.84859 0.364053 -0.389177 0.334155 -0.55301 -0.939151 -0.241412 -0.300636 0.0493737 -0.157233 -0.485017 0.695447 0.0775093 -0.711962 0.217695 -0.988486 -0.800334 0.255982 -0.369175 -0.763631 0.621518 0.301932 0.550214 -0.765185 0.712487 0.755554 0.920991 0.222673 0.199248 -0.582205 -0.868777 -0.523666 0.112397 0.937661 0.137423 -0.269842 0.426541 -0.479751 -0.921343 0.253097 -0.641085 -0.561797 0.0821705 0.864293 -0.803955 0.335801 0.00730565 -0.0270509 0.971567 -0.905271 0.725197 0.930357 -0.523808 0.855908 -0.0275093 -0.934814 -0.576128 0.439727 -0.765045 -0.128998 0.544226 -0.738786 -0.0231219 -0.208743 0.951648 -0.61673 0.0117814 -0.528703 0.669865 0.0271425 -0.227127 -0.267775 -0.694879 0.91404 0.00415521 -0.878867 -0.255466 0.150851 -0.882717 0.102082 0.428475 0.204971 -0.576524 0.755429 0.260673 -0.948929 -0.783221 -0.581621 0.187225 -0.741219 0.273445 -0.800168 0.447739 -0.451749 0.274827 0.033407 -0.832394 -0.494523 -0.846718 -0.725049 0.717029 0.438762 0.544528 0.584768 -0.0304186 -0.629227 0.182863 0.0205299 0.306177 0.624149 0.196771 -0.562825 0.0985912 0.356742 -0.750424 0.208799 -0.806648 0.378729 -0.3644 -0.768809 0.909797 0.917521 0.650455 0.556874 0.434092 0.511372 -0.277498 -0.497407 0.550168 0.238971 0.166016 -0.567527 -0.29007 0.614557 0.629828 -0.330865 0.80452 0.874026 0.449719 0.176514 -0.503084 0.107146 -0.150493 -0.751081 -0.298021 -0.698881 -0.20269 -0.0975358 -0.0613921 -0.921383 0.642768 -0.768124 -0.921826 -0.214614 -0.723315 -0.15402 0.313294 -0.868605 0.612601 0.281051 -0.914421 -0.554996 0.470181 -0.81544 -0.285388 0.509959 -0.655828 0.776112 -0.785479 -0.938574 0.197467 0.50934 -0.572967 0.644342 0.885604 -0.245837 -0.718052 -0.373039 -0.524088 -0.891866 -0.590461 -0.0384907 -0.40841 0.898806 0.0824312 -0.909532 -0.490517 0.668226 -0.695204 -0.674421 0.392678 -0.75672 0.0422079 -0.364028 -0.6561 0.290107 -0.999664 -0.790284 0.482746 -0.3798 0.526559 -0.050818 0.553528 -0.764157 -0.507762 -0.883348 -0.774088 -0.0373005 0.130474 0.680686 -0.950335 0.485288 0.518974 -0.453566 -0.598494 0.39632 