-0.018654 0.196381 0.124315 0.542998 -0.616094 -0.991862 0.0514435 -0.736547 -0.603933 -0.434346 0.114029 -0.822038 0.622739 -0.174988 -0.0643829 -0.245488 -0.778158 0.15654 -0.672669 0.432992 0.559519 -0.118131 0.0107281 0.728314 0.0115638 0.550648 0.0193057 -0.431119 -0.0916855 -0.641637 0.693169 0.393589 -0.450407 -0.903328 0.61851 0.199912 0.125758 0.968441 -0.139638 -0.462204 0.730499 0.506225 0.998478 -0.620316 -0.963177 -0.829693 0.216935 0.894693 -0.402453 0.618591 -0.69098 -0.0602114 -0.859546 0.05226 0.248811 0.567794 -0.376956 -0.511937 -0.567778 -0.846505 -0.117467 -0.894171 0.493241 0.817962 -0.639427 -0.000910034 -0.0632258 0.844234 0.784465 -0.775476 -0.436758 -0.585854 -0.687878 -0.0829316 -0.434443 0.351536 -0.23663 -0.224226 0.0477526 0.288602 -0.858483 0.328409 0.907758 -0.568144 -0.153717 0.846558 -0.320993 0.49874 0.0237945 -0.101354 0.60893 0.933091 -0.764589 0.80885 0.579346 0.164267 0.522609 0.346647 -0.237858 -0.754005 -0.563953 -0.263186 0.108031 0.419877 0.722058 0.347755 -0.422323 -0.491379 0.000651365 0.663441 -0.571416 0.452958 0.929361 -0.381237 0.0629995 0.364489 -0.958663 0.199778 -0.278686 -0.390268 -0.222484 0.393301 0.882707 -0.700063 -0.668682 -0.780619 -0.949192 0.718517 0.636595 -0.607295 0.881908 0.795011 -0.32267 0.964991 -0.240307 -0.136504 0.77242 -0.0793381 -0.800319 0.111599 -0.679001 -0.538425 -0.0988404 -0.0148401 0.884226 -0.903608 0.426604 0.326166 -0.190614 -0.288708 -0.790059 -0.555683 0.470897 -0.853258 0.0583731 0.714875 -0.531663 0.557934 -0.257917 -0.588695 -0.883327 0.0344335 -0.507536 -0.504923 -0.484785 0.91672 -0.516134 0.180708 0.262629 -0.922661 -0.826175 0.517042 -0.486009 0.351096 -0.266244 0.0397721 -0.961608 -0.27757 0.695731 0.614904 -0.0393158 0.624744 0.579857 -0.313946 -0.000385946 -0.228804 -0.19179 0.779902 -0.902582 0.376837 0.515423 -0.814643 -0.406339 -0.356808 -0.715404 -0.968759 0.137495 0.579062 0.4631 0.119847 -0.643866 0.794 -0.793662 -0.844093 0.5603 0.549632 -0.109661 0.995296 -0.769356 0.553648 -0.297349 0.636968 -0.332298 -0.199827 -0.502008 -0.133962 0.350937 -0.298211 0.397196 -0.192274 -0.00612829 0.224458 0.262485 0.743207 0.458991 0.546953 -0.703547 0.231187 0.105332 0.797885 0.484203 -0.916976 0.48522 -0.957616 0.542481 0.0020618 0.680721 0.0612663 0.618672 -0.484653 -0.676879 -0.947097 -0.377367 0.778728 -0.810197 -0.226519 -0.642436 -0.706222 -0.193841 0.1041 -0.715693 0.028612 0.200163 -0.271072 -0.0990473 0.744324 0.0593177 -0.149644 0.629759 -0.209171 0.853099 0.636325 -0.45735 -0.567285 -0.338934 0.128004 0.480352 0.282287 0.122309 0.222065 0.116576 0.731516 -0.736493 -0.993059 -0.59607 -0.260177 0.145254 -0.65901 -0.274489 -0.823189 0.193245 0.414652 0.351954 -0.0601345 -0.915293 0.000831611 -0.478751 0.969748 -0.138953 -0.189222 0.936767 0.635801 0.3296 0.213972 -0.0324929 0.61356 -0.529404 -0.368118 0.219095 -0.0888804 -0.0519086 0.375331 -0.50144 -0.0143469 -0.449043 -0.262773 -0.937808 -0.661621 -0.389533 -0.614574 0.473422 -0.695099 -0.846201 -0.619487 0.809961 0.0762017 -0.193441 0.677666 0.636387 0.245712 0.334699 0.32203 0.0689301 -0.670149 0.378581 -0.0358833 -0.611313 0.357195 -0.666745 -0.748924 0.34777 -0.725177 -0.380103 0.934735 -0.552811 0.197512 0.0587996 -0.725052 0.748683 -0.258614 0.188676 0.144774 0.236582 -0.87516 0.760564 -0.735408 -0.989951 -0.675576 -0.773869 0.74884 -0.350336 0.697568 -0.555882 -0.564466 -0.0878466 -0.951458 0.9163 -0.421547 -0.416088 0.171788 0.96672 0.94013 0.589381 -0.462333 0.170654 -0.225774 0.740577 -0.121532 -0.446697 0.242647 -0.848885 0.742203 0.69027 -0.623264 -0.275131 0.0759078 -0.244441 0.292961 -0.152954 -0.763846 -0.383963 