-0.106275 -0.647892 -0.85209 0.935641 0.584141 0.610995 0.129675 0.480189 -0.0168866 0.663633 0.594521 0.666652 0.89625 0.466179 0.532481 -0.711088 -0.599143 -0.507454 -0.0439614 0.933636 -0.792076 -0.884675 -0.417305 -0.427615 0.527605 0.395802 -0.643788 -0.516313 -0.0894488 0.714675 -0.652499 0.909034 -0.0114273 -0.508001 -0.507843 -0.762226 0.331987 0.958036 -0.969651 -0.276012 0.745468 -0.973843 0.969724 -0.347555 0.758624 -0.897737 -0.522243 -0.207901 0.173387 0.0137365 0.0824615 -0.645745 -0.501916 0.807175 -0.715664 -0.697606 0.340137 -0.655114 0.494813 -0.442287 -0.542214 -0.129047 -0.540208 0.966014 -0.000911757 -0.753042 -0.161254 0.635476 -0.574928 -0.800473 -0.426431 -0.604687 0.026353 -0.917732 -0.964743 0.704334 -0.839257 0.411275 0.788441 0.736318 0.195663 -0.710943 0.965219 -0.872515 -0.906523 0.242948 -0.917849 0.276847 0.482271 -0.113271 -0.674439 0.0801022 0.732209 -0.748915 0.0762554 -0.25102 -0.0752355 0.0484072 -0.465716 0.564468 0.20459 0.983495 -0.0296753 -0.588682 0.590932 -0.274212 0.224006 0.690005 0.639047 -0.288606 -0.937817 -0.183337 -0.513009 0.473634 -0.595588 -0.252927 0.387273 0.598514 -0.689159 -0.598925 -0.289507 -0.845974 -0.246629 0.150713 0.638512 -0.925339 -0.166557 0.304101 -0.277272 -0.0143772 0.177873 0.696339 0.381243 -0.112419 -0.766444 -0.240238 -0.240118 0.762914 -0.0135192 -0.182834 -0.946997 0.799522 -0.310719 -0.754617 -0.273692 -0.371067 0.299927 -0.38256 0.233474 -0.94829 0.545344 0.992548 -0.607664 0.15371 0.0779239 -0.0422889 -0.637347 -0.676938 0.40033 0.0758834 -0.00230458 0.514977 -0.811346 0.382025 -0.463611 -0.680735 0.845568 -0.207322 -0.330926 -0.731563 -0.776118 -0.552426 0.474458 -0.447499 -0.602122 0.584992 0.505101 -0.393958 -0.581532 0.415271 -0.444371 -0.441639 -0.955195 -0.287065 -0.468797 0.823628 0.175208 0.477276 0.0402622 0.462064 -0.0669424 0.454198 0.0654427 -0.794745 -0.905605 -0.0819271 0.149907 -0.952694 -0.00331192 0.710154 0.877272 -0.888207 0.22627 0.25905 0.572856 0.0203003 -0.977156 0.244098 -0.578008 -0.754713 -0.968397 0.143675 -0.258125 -0.956534 -0.782269 0.471409 0.0111348 0.995641 0.329569 -0.522789 -0.431665 0.703505 -0.317617 0.214468 -0.28812 -0.995942 -0.995965 0.476741 0.757134 0.347372 -0.754197 -0.918767 0.0668745 0.96861 0.48962 0.604113 0.210321 -0.966773 -0.406449 -0.283319 0.18052 0.755729 0.321338 -0.935164 -0.615059 0.0404596 0.2719 -0.230401 0.783405 0.575442 0.119622 0.490472 0.0141094 0.33869 -0.58302 0.0464544 0.558194 0.890242 0.0983558 0.63872 -0.076519 0.0783961 -0.937449 0.777029 -0.427797 -0.906718 -0.201145 -0.946707 0.156224 0.491504 0.681564 0.506291 -0.932402 0.390428 0.758016 0.269279 -0.61641 -0.427163 0.552912 0.42206 -0.932683 0.884895 -0.192574 0.469431 0.28953 -0.626043 0.782703 0.585542 -0.80967 0.672343 0.684377 0.424166 -0.762094 -0.385004 0.570823 -0.812082 -0.730711 0.973406 -0.451665 0.567559 0.568436 0.393804 -0.0749927 0.117349 -0.227041 -0.31876 0.0319762 0.692165 -0.770091 0.751411 -0.926077 0.990412 0.820323 -0.838951 -0.624902 -0.616703 0.0191225 0.704502 -0.857772 0.958707 0.440583 0.200072 0.935128 -0.390975 -0.705131 0.441689 0.539005 -0.233512 -0.256506 0.234141 -0.828724 0.635905 -0.407934 -0.793273 -0.110188 0.874898 -0.404971 0.00672314 -0.329297 0.67934 0.917694 -0.157345 -0.584577 0.992714 -0.36517 -0.830958 -0.811495 0.597377 -0.7758 0.171478 -0.0908865 -0.995444 0.313287 -0.89251 -0.897947 -0.432376 0.326899 -0.360912 -0.193136 0.76192 -0.779043 0.853938 0.485377 -0.736213 0.250113 -0.515046 -0.262093 0.131404 0.335175 -0.121739 0.83549 0.109749 -0.578186 -0.745465 0.930365 -0.0262416 -0.406507 0.783516 0.359811 0.174215 -0.229876 