0.784384 -0.902477 0.648501 0.44058 0.158403 0.325249 -0.659156 0.055855 -0.612998 -0.774033 -0.483768 -0.0597938 0.964221 0.00197372 0.729641 0.885011 -0.138932 0.789523 0.945539 -0.643915 -0.106938 -0.369243 0.985503 -0.237853 0.0577486 0.0655622 0.904734 -0.514646 0.669081 -0.50505 -0.282179 0.286245 -0.219391 0.550692 0.882077 -0.446101 -0.777232 0.820974 0.398783 -0.0598065 -0.385076 0.59767 -0.797411 -0.341324 -0.0794633 -0.626929 0.504624 -0.993797 -0.405989 -0.365488 -0.271453 0.0979843 -0.582597 0.30735 -0.219926 -0.240695 0.0334952 0.792361 0.0961656 -0.0355621 0.47189 0.375992 -0.750874 -0.87544 -0.664011 0.144617 0.49372 -0.703507 -0.559512 0.10137 0.64615 0.316789 -0.534544 0.731849 -0.172613 -0.988996 -0.0708691 -0.0965339 -0.46572 -0.349824 0.686072 -0.914568 -0.0870155 0.954332 0.0177626 0.692579 0.485168 -0.559821 0.0842418 0.625884 0.682454 -0.431656 0.869866 -0.817845 -0.986173 -0.562145 0.273972 -0.736765 0.700267 -0.695151 0.266436 -0.931518 0.975749 -0.872361 -0.615928 0.964283 0.518412 -0.230583 0.379487 -0.350433 0.0546636 -0.250043 -0.670774 0.79042 -0.755291 0.243123 -0.88293 0.251068 -0.267258 -0.779757 -0.29413 0.789512 -0.902818 -0.2927 -0.657533 -0.878967 -0.239776 0.97326 -0.651288 0.984094 -0.960274 -0.353629 -0.771287 -0.963779 -0.450585 0.0668191 0.234897 0.0412219 0.898858 0.666743 0.447996 0.0841076 -0.295327 0.916914 0.686966 0.228758 0.485611 -0.697058 0.569784 -0.776776 -0.508759 0.741079 0.39324 0.903181 -0.844535 -0.55703 0.819731 -0.420672 0.571755 0.179308 0.805792 0.973784 -0.725463 -0.100354 0.775609 0.0287015 -0.4384 -0.70973 0.855722 0.76583 -0.939159 0.00889412 0.0435432 0.557286 0.612397 0.266944 0.161462 -0.0459149 -0.138363 0.806599 -0.743444 0.867655 -0.12196 0.953627 0.801822 0.678962 -0.761586 -0.350582 -0.405222 -0.547961 0.448336 -0.138543 0.693536 -0.345433 -0.580597 0.654597 0.174588 0.501076 0.0760061 0.363342 0.403637 -0.131177 -0.269186 0.0287686 0.261476 0.112682 0.377819 0.0333661 -0.737768 0.218771 0.437824 0.830349 0.0442011 -0.697154 -0.902323 0.739959 0.729348 0.99177 0.0402655 -0.199657 0.273898 0.75736 -0.344585 -0.173168 0.455462 0.278932 0.793485 -0.0954191 0.314473 0.652502 -0.832267 0.00626211 0.0527958 0.943226 -0.00391351 0.252425 0.0199391 0.425221 0.82536 0.898627 -0.554717 0.103277 0.164873 0.911142 -0.465711 -0.542447 0.541445 -0.305661 -0.0890331 0.707359 0.997073 0.781363 0.244992 -0.249622 -0.891174 0.86715 0.644984 -0.624791 -0.765266 -0.298961 -0.821721 -0.792371 -0.647225 0.934205 -0.661011 0.192515 0.674918 -0.361956 -0.304419 0.095849 0.943738 0.367911 -0.137609 -0.765836 -0.281628 -0.564248 0.646179 -0.163106 0.208074 -0.709417 0.373416 0.664891 -0.381496 -0.874573 -0.0128241 -0.680426 -0.511054 0.210424 -0.329495 0.882017 -0.348487 0.949855 0.53055 -0.0682927 0.336176 0.563084 -0.0291365 -0.112545 0.854393 -0.455467 -0.956551 -0.168355 -0.890527 0.281119 -0.111691 0.096161 0.78951 0.362195 -0.927381 -0.486934 0.179094 0.744881 0.78478 0.956622 -0.268903 -0.682915 0.740425 -0.518482 -0.0160915 0.596922 -0.155026 0.0914296 -0.900663 -0.0180328 0.978136 -0.630112 0.936567 -0.254804 -0.399195 -0.37219 -0.860026 0.602757 0.207034 0.0504885 0.04607 -0.415197 0.229149 -0.944897 0.693204 0.23577 -0.738767 0.274502 -0.594155 -0.726245 -0.361149 0.372437 0.718322 0.389199 -0.529708 0.331572 0.902789 0.528978 0.669622 0.363418 -0.49902 0.865941 0.572678 -0.410078 0.386334 0.873573 -0.290429 0.0040479 0.764006 -0.343767 -0.117801 -0.54126 -0.137016 -0.996802 -0.799612 0.132723 0.739209 0.734406 -0.973402 -0.151685 0.7893 -0.821961 0.691054 0.783992 -0.807494 0.183264 -0.222595 