-0.641937 0.651328 -0.791308 -0.511466 0.053327 -0.903403 -0.369723 -0.683281 0.79933 0.12995 0.8188 0.618846 0.584428 -0.283181 -0.354785 0.641495 -0.199588 -0.862561 0.75066 0.450665 0.178362 -0.718203 0.251721 0.966286 -0.0504418 0.198773 0.737314 0.415893 -0.314579 0.449268 0.0128817 0.380233 0.269067 -0.155361 -0.617347 -0.627891 0.338224 0.168189 -0.864042 0.0106032 -0.758769 0.376981 -0.0547985 -0.928676 -0.543353 0.281995 0.841743 -0.464809 -0.321538 -0.0732473 -0.838964 0.107132 -0.313667 -0.171282 0.0414864 0.248534 -0.824497 -0.314822 -0.837391 -0.575539 -0.467481 0.975033 0.235013 0.687394 -0.135593 -0.93378 0.404766 0.745811 -0.657515 -0.696709 0.975707 -0.938272 0.0690682 0.334774 -0.603901 -0.565014 0.00501574 -0.203286 0.180726 -0.527835 0.821303 0.141151 -0.581936 0.635495 0.667955 0.81879 -0.888607 0.540968 -0.47144 -0.846932 0.735498 0.648741 -0.0419693 0.482016 -0.579995 -0.0275628 -0.6298 -0.618876 0.670116 -0.727295 0.693918 -0.92128 -0.446805 -0.318121 -0.145277 -0.141433 -0.606654 -0.428289 -0.59866 -0.921062 0.518326 -0.854836 -0.333097 0.13834 0.836401 0.356628 0.767069 0.414138 0.0670274 -0.494048 -0.40116 -0.64371 0.30194 0.400695 0.269981 0.0223266 -0.285795 0.578343 -0.960497 -0.126697 -0.905031 -0.46456 -0.974126 0.920334 0.704905 0.307951 -0.920481 -0.023898 0.812061 0.445972 -0.14091 -0.380905 0.299176 -0.44213 0.967103 0.698243 -0.773147 -0.117414 0.32853 0.941884 -0.85704 0.241423 -0.603385 -0.257876 -0.623198 -0.930342 0.89932 0.383687 0.0537978 0.117352 0.0714475 0.923239 0.0198718 0.476345 0.227302 0.05457 0.648284 0.36753 -0.724236 0.624056 -0.95564 -0.622427 0.511813 0.508311 -0.945061 0.576149 -0.13622 0.788089 -0.883821 -0.973273 0.39252 -0.191651 -0.179389 0.160862 -0.549188 -0.501612 0.386485 -0.784031 0.222003 -0.107945 -0.291183 0.765359 -0.447839 0.260669 0.196901 0.223936 -0.330256 0.576506 0.687688 -0.833504 -0.125501 0.303465 0.897354 -0.445265 -0.0447366 -0.551565 -0.643879 -0.477094 0.366784 -0.393599 -0.508998 0.692598 -0.41722 0.86737 0.450395 -0.371957 0.706155 0.511858 0.174199 -0.00485063 -0.706248 0.47925 0.448613 0.883628 0.0495767 -0.993853 -0.47141 0.0701959 0.711698 -0.992921 -0.913892 -0.521497 0.929743 0.00312652 -0.90205 -0.923496 0.915681 -0.066915 0.980746 0.0316019 -0.491241 -0.798418 0.815441 0.143246 0.440559 0.843259 -0.513326 0.270314 0.335643 0.779144 0.102033 -0.529458 -0.753697 0.462746 -0.083064 0.846236 0.284429 0.79086 -0.178691 -0.881335 0.136357 0.152206 0.444643 0.282625 -0.0836396 -0.382932 0.0293612 -0.280176 0.722083 -0.0761495 -0.0528285 0.257825 0.629666 0.708613 -0.436592 -0.397226 0.086958 -0.403575 0.571164 0.253869 0.194277 0.321721 0.867431 0.835139 -0.260702 0.84499 0.00645112 0.0302299 -0.216325 0.843572 -0.48581 -0.525441 0.647141 -0.147544 -0.614697 0.185255 -0.231461 -0.670544 0.666971 -0.913316 -0.912136 0.0108736 0.451836 0.0418679 0.949151 0.551784 -0.0601578 -0.698532 -0.596067 0.744831 0.798881 0.653006 -0.434985 -0.429346 -0.0272696 -0.749071 0.631567 0.222889 0.31922 -0.560716 -0.781056 -0.132959 -0.759222 -0.321813 -0.557128 0.333231 -0.985334 0.42054 -0.62835 -0.831045 0.518393 -0.560866 -0.293933 -0.916544 0.281721 0.591034 -0.168279 0.0858824 -0.589581 0.104823 0.0367985 -0.439853 0.687184 -0.641384 -0.187026 0.767897 0.158014 -0.492741 0.0530405 0.367838 -0.201791 -0.826017 0.420441 -0.629364 -0.414777 -0.42531 0.0652751 -0.715418 -0.110894 0.741852 -0.139954 -0.223832 0.646402 -0.281617 -0.360723 -0.0196938 0.892346 -0.687764 -0.513024 0.414375 0.506147 -0.736566 -0.530749 -0.650641 -0.0992457 -0.451774 0.0498961 0.451837 0.2111 -0.411248 0.216647 