-0.555489 -0.633736 0.334576 0.911025 -0.387285 -0.0572942 -0.705793 -0.496692 0.843319 -0.811454 0.477727 -0.629814 0.014121 -0.896537 -0.0293359 -0.745643 -0.425815 -0.995421 -0.511645 -0.654017 -0.660506 -0.26756 -0.833104 0.670476 -0.280825 -0.487872 -0.23466 -0.105668 -0.16138 0.168037 0.400857 0.101749 0.539145 -0.0376467 0.304884 -0.142979 -0.947737 0.471192 0.162934 0.502756 0.430578 0.935805 -0.383076 -0.928582 0.933634 -0.582493 -0.331146 0.642518 0.793247 -0.928621 -0.472365 -0.684975 0.250302 0.711387 0.354001 0.30085 -0.873598 0.867237 -0.263358 -0.97035 0.125356 0.642684 -0.410643 -0.611845 -0.580524 -0.400589 0.938245 0.853208 0.723746 0.551747 0.492116 -0.347874 -0.0625653 -0.692424 -0.379819 -0.948119 0.838518 0.168804 0.795274 -0.245955 -0.749424 -0.818277 0.386746 -0.532832 -0.323839 -0.902706 0.256559 -0.175292 -0.831882 -0.610624 -0.543806 0.249054 0.897372 0.452896 0.0101446 0.938329 -0.649355 -0.839944 0.77255 0.774491 0.398156 -0.474512 0.745569 -0.542272 0.6007 -0.00718593 -0.29224 0.563852 -0.498333 0.182157 -0.0398813 -0.33277 -0.0205701 -0.755782 0.215471 0.383817 -0.307652 -0.707795 0.787003 0.56017 -0.147476 0.761105 -0.190137 -0.649768 -0.683227 0.213849 0.0327912 0.648868 0.240222 -0.723045 0.0042817 0.30898 0.38367 0.662144 -0.713297 -0.0502787 -0.269383 -0.557781 0.243394 -0.0938727 -0.580243 -0.635798 0.847079 -0.59462 0.0419815 0.0742374 -0.726659 0.555265 0.649393 0.405475 -0.39798 -0.0417452 0.253333 0.0440928 0.767103 0.942005 0.729138 0.682676 0.893464 -0.26624 -0.215355 0.978947 0.929066 0.835192 -0.828792 -0.0295619 -0.661856 0.63475 -0.908627 -0.729754 -0.846935 0.710158 0.568278 0.811852 0.00168155 0.764453 0.784639 -0.387455 0.773407 0.189996 -0.941744 0.521186 -0.983346 0.958718 -0.661886 0.375469 -0.121706 -0.856615 -0.965648 0.861552 0.152098 -0.657228 0.255149 -0.312128 0.300551 -0.748701 0.0224896 0.355345 0.335534 -0.590996 -0.434733 0.465554 -0.0160436 0.104654 0.146029 0.147825 0.448995 -0.322975 -0.989634 -0.345755 -0.368568 0.733829 -0.35929 -0.475995 -0.510193 0.534654 0.38041 -0.615932 -0.105352 0.563586 0.295884 0.232535 -0.758379 -0.722321 0.573277 0.748975 -0.936694 0.545685 0.577705 -0.949722 -0.666835 0.572642 0.454947 0.0590074 -0.462506 0.63336 -0.525429 0.0808965 0.106689 -0.391895 0.381191 -0.280752 0.903513 0.165916 0.491768 -0.409764 0.846847 0.451186 0.450344 0.331645 0.468285 0.221401 0.997139 0.642336 -0.0892121 0.266219 -0.700139 0.680546 -0.140819 0.454249 0.26124 -0.997858 0.593664 0.115447 0.410209 -0.59732 0.0853411 0.516237 0.364478 0.257794 0.790553 0.3588 0.156051 -0.116861 -0.142832 -0.0596745 -0.572788 -0.812353 -0.404904 0.325718 0.850586 0.497271 -0.386733 -0.21622 0.674921 -0.355385 0.920504 -0.912583 0.986383 -0.756575 -0.0959451 0.756701 -0.130623 -0.573755 -0.659313 -0.822017 0.549182 0.164583 0.904227 -0.112943 -0.838916 -0.980795 0.199342 0.782543 -0.98978 -0.571092 0.0907804 0.00581111 0.915752 -0.461442 0.710373 -0.29905 0.342063 0.552375 -0.471119 -0.916819 -0.294252 0.995187 0.672315 -0.41662 -0.148376 -0.980948 -0.756418 0.319715 0.244654 -0.110053 0.902967 0.0867328 0.397492 0.104061 0.395075 0.704882 -0.419858 -0.705589 0.310459 0.478393 -0.321185 0.293013 -0.0979216 -0.383508 -0.0442772 0.839426 0.25308 -0.337168 0.0201172 -0.472291 0.305009 0.643152 0.743931 0.144228 -0.859117 -0.437215 -0.874178 -0.694455 -0.45219 -0.926273 0.270043 0.487338 0.839608 -0.325797 0.872952 0.560135 0.502772 0.288261 -0.924621 0.465059 0.532878 -0.635835 0.261904 0.420441 -0.198433 -0.490808 -0.975515 -0.862257 0.958287 -0.770823 0.444545 0.732 -0.0713963 0.604265 0.892932 