0.0545429 -0.324835 0.764452 0.726956 -0.587007 -0.343413 -0.577616 0.553269 0.0758602 -0.948706 0.625295 0.439011 -0.894158 -0.0309614 -0.441203 -0.0953147 0.931231 -0.424229 0.241838 -0.613828 0.249106 -0.109971 0.919796 0.194359 -0.524 0.310654 0.687563 -0.926318 0.207633 0.191649 -0.37767 0.455361 0.135462 -0.779471 0.874945 -0.0266818 0.767018 0.377501 0.665506 -0.732253 0.624632 -0.407278 0.178198 -0.541964 -0.470261 0.142457 -0.0126841 -0.893595 0.124498 -0.102778 -0.677005 -0.213022 0.5528 0.150828 0.39886 -0.255256 0.840138 -0.909852 -0.453662 0.762419 0.661215 -0.403257 -0.140555 0.0506718 -0.842116 -0.44476 0.271214 -0.694513 -0.0605927 -0.73271 -0.0445737 -0.0563834 0.104774 0.394243 -0.81202 -0.0839541 -0.69123 -0.254534 -0.804581 0.0778163 -0.792809 -0.938537 -0.0861641 0.544696 -0.276841 -0.475384 0.277936 -0.0606294 -0.807375 -0.907862 -0.21647 0.223779 -0.93254 -0.773655 -0.49937 -0.462654 -0.455905 -0.363417 -0.526191 -0.945023 -0.472057 0.411231 0.590146 -0.323674 -0.115981 -0.854435 -0.360756 0.23366 -0.8127 0.0249484 0.501241 -0.0800872 -0.426204 0.0350633 -0.276701 -0.231909 0.794642 0.275272 -0.104892 0.959958 -0.276805 -0.262394 0.23165 0.226431 -0.322721 0.388312 0.320278 0.660061 0.00308142 -0.599907 -0.106073 0.280566 0.527527 0.104388 -0.482866 -0.86929 0.678457 -0.76929 0.338858 -0.870179 0.207872 -0.619293 0.910977 0.62419 0.374605 -0.931049 -0.670727 -0.622082 0.681809 -0.0433844 0.826907 0.511294 -0.863957 0.503849 -0.158239 0.85906 -0.403169 0.637978 0.506374 -0.135041 0.638651 -0.600533 0.0574888 -0.0233498 0.98853 0.900281 -0.249213 -0.104325 0.857851 -0.323949 -0.670057 -0.452152 -0.00644844 0.575128 0.371884 0.609668 -0.684339 0.878979 -0.964169 -0.993676 -0.549791 0.094712 0.708011 0.987185 -0.796254 -0.192355 0.254008 -0.762574 -0.288711 0.974015 -0.945882 0.321331 -0.511808 0.327778 -0.10117 -0.655632 0.0365225 -0.414601 0.348098 -0.306509 -0.223314 0.0680311 -0.265554 -0.207199 0.758257 -0.0853915 0.676667 0.337639 0.344857 0.59974 0.0495135 -0.250157 -0.798113 0.681101 0.623243 -0.0352149 0.0514221 -0.371761 0.257105 -0.733121 -0.195788 -0.221835 -0.481892 -0.625179 0.330534 0.0536487 0.0883967 -0.302502 -0.507856 0.163377 -0.401123 0.978817 0.0595967 -0.0762331 0.96181 0.514461 0.168741 -0.686569 0.22112 -0.267215 0.610916 -0.964855 -0.314082 0.226988 0.278679 0.48417 -0.562835 0.159519 -0.427152 -0.714972 -0.0830887 0.0312151 0.383526 -0.876505 -0.39105 0.0115911 0.39883 0.857146 0.78018 -0.383288 -0.470661 -0.39914 0.877602 -0.821263 0.78005 0.519954 -0.0979632 0.55665 -0.0124627 -0.0984438 -0.805266 -0.0617201 -0.560898 0.993643 -0.991463 0.917989 -0.6742 0.617197 -0.33381 -0.146489 0.621406 -0.2574 -0.176263 0.783931 -0.862783 -0.199835 0.94412 0.561834 -0.923922 -0.905904 0.306734 -0.961074 0.43042 -0.612426 -0.554378 0.34215 -0.312862 0.363116 0.674736 -0.391938 -0.689412 0.69036 -0.764649 0.43418 0.712328 0.429231 0.935215 0.96307 -0.949855 -0.556263 0.111106 0.464517 -0.540609 0.739983 0.414238 0.535447 0.0315407 -0.0780625 0.453532 -0.258827 -0.786587 -0.49973 0.240838 0.631842 -0.839713 -0.114411 -0.17825 -0.871551 0.323629 0.627333 0.348662 0.732336 0.0844531 -0.153485 0.081908 0.227018 0.507369 -0.912185 0.2995 0.94269 -0.629511 -0.038888 -0.709201 0.831538 -0.97416 0.762588 0.62462 0.105101 -0.316531 -0.19599 -0.300255 0.232535 -0.00424962 0.644623 0.610419 -0.374206 0.492289 0.390809 0.0574189 0.576196 0.099927 0.498903 0.0104081 -0.72432 0.227407 -0.0126046 0.974521 -0.0422802 0.171593 -0.25027 0.688787 0.277007 0.232393 -0.243535 -0.0363024 0.0132423 -0.445944 -0.196155 0.989471 0.398621 -0.547355 