0.379269 0.135011 -0.0126445 0.912972 -0.26743 -0.299656 -0.295286 0.233996 -0.428235 -0.116186 -0.0215287 0.489972 0.869696 -0.425867 0.611224 -0.439282 0.214283 0.962171 -0.467682 -0.262733 0.576324 0.542375 -0.729449 0.978749 0.584416 0.580356 -0.534372 -0.797738 -0.561918 0.602182 -0.898072 0.691378 0.959485 0.512373 0.962007 -0.173825 0.993938 0.314568 0.01513 0.86587 -0.0812805 0.15015 0.650908 0.221035 -0.57299 -0.876501 0.550018 0.377872 0.798734 -0.986746 -0.431827 -0.458592 -0.31742 0.339103 -0.107444 -0.821332 -0.487406 -0.0867861 0.968454 0.880239 -0.954261 -0.901593 0.097061 0.291072 0.401602 -0.494577 0.798699 0.959424 0.891493 0.515412 0.443466 0.481821 0.604514 0.890932 -0.677637 0.291554 -0.373829 -0.887501 0.316493 -0.0825334 -0.330953 -0.843058 -0.980881 0.757951 0.457275 0.859332 0.657286 -0.541453 -0.640185 -0.228009 0.881531 0.999665 0.850686 -0.467405 0.157711 -0.532983 -0.49139 0.204334 0.659904 0.643538 -0.555829 0.159548 -0.00696037 -0.27231 -0.186328 0.324831 0.527337 0.759918 0.197483 -0.396538 0.629276 0.21451 0.535048 0.828596 -0.970212 0.882155 -0.019899 0.138373 0.767662 0.101438 -0.494126 0.322784 0.499623 -0.0501758 -0.145004 0.955974 0.620588 -0.893507 0.288531 -0.0225556 0.778181 0.21854 -0.901442 -0.239598 0.858719 0.381688 0.0169546 0.281653 0.636158 0.773817 0.10072 -0.878996 0.153731 -0.197665 -0.0693012 -0.664369 0.764339 -0.451997 0.45094 0.759923 0.999058 -0.407487 0.633776 0.639515 -0.455049 0.898151 -0.0853395 -0.517487 0.636929 -0.338561 0.913448 -0.850901 -0.503097 0.100308 -0.48295 0.98793 0.863775 0.126455 -0.888256 0.871146 -0.616845 -0.720678 0.951228 -0.356177 -0.511598 0.446478 -0.965834 -0.989508 -0.473617 0.361179 -0.125848 -0.189604 0.393268 0.0179644 -0.769918 0.823708 -0.695164 0.281936 0.412877 -0.795672 0.222583 0.528223 -0.19974 -0.249131 -0.261242 -0.503514 0.294404 -0.513947 -0.699109 0.938942 0.780798 0.524654 -0.828298 0.672326 -0.565824 0.689727 0.602256 -0.567685 -0.882007 0.0544354 0.0533779 -0.26731 -0.348432 0.131915 -0.790089 0.727064 -0.157417 0.243083 0.800343 0.998952 0.379063 -0.611424 0.562658 0.561337 -0.341681 0.988895 -0.645403 0.883855 0.332086 -0.82925 0.143667 -0.0155325 0.352997 -0.912148 -0.836608 0.557879 0.844331 -0.0847052 -0.773045 0.293638 -0.562411 0.137549 0.366709 0.124501 0.813584 -0.461157 0.394837 0.792017 0.157444 -0.948941 0.535803 -0.0116619 -0.669121 0.386087 -0.827515 0.745383 0.668808 0.954692 -0.524662 -0.695915 0.584887 0.809407 0.743047 0.335009 -0.677358 0.0881882 0.340683 0.923213 0.123744 -0.123114 0.435517 -0.0967572 0.367606 -0.0765925 0.841666 -0.369499 -0.744109 0.430085 0.782997 0.105343 -0.781834 0.723492 0.971127 -0.91853 -0.761081 0.953732 0.18563 -0.0480237 0.0434612 -0.177177 -0.397841 -0.165483 0.707428 -0.660381 -0.844664 -0.631389 -0.337223 0.545514 0.666309 0.515983 -0.35212 0.128206 -0.594367 -0.320932 -0.158746 -0.35836 0.689606 -0.512334 -0.942287 -0.430258 0.516515 -0.523016 -0.995652 -0.754815 0.778329 0.0508374 0.843535 0.357693 -0.974173 -0.216888 -0.834004 0.746047 -0.493956 0.967795 0.549132 0.239352 0.00339307 0.330515 0.412017 0.454483 0.909254 0.881282 -0.0370264 0.584824 0.970363 -0.742772 0.194066 -0.858886 -0.638387 0.552626 -0.515666 0.612474 -0.773714 0.789679 -0.310524 0.608462 0.687495 -0.661491 -0.930668 -0.316171 0.616406 0.640476 -0.366086 0.390737 0.96246 0.828558 -0.696286 -0.693764 0.0725897 0.283845 -0.771147 0.595842 0.889378 0.223546 0.563449 0.910544 0.667134 -0.0799845 -0.582824 -0.027187 0.381518 -0.69374 0.390289 0.0614405 0.166728 -0.442547 0.374172 0.592856 -0.714147 -0.779826 -0.326374 