0.408135 -0.134445 0.0936274 0.0995129 -0.91042 0.545404 0.0424559 0.989285 -0.378151 0.771496 0.362712 -0.692582 0.66204 -0.800088 0.820109 -0.782057 -0.0886775 0.33163 -0.935192 -0.363141 -0.234502 0.55186 0.809884 -0.560694 0.116865 -0.112295 0.000229662 -0.220577 -0.123076 -0.516382 -0.315964 -0.137186 0.518132 -0.207948 -0.234693 -0.443094 0.997774 -0.156604 0.627017 0.638462 0.562611 0.255291 -0.737817 -0.739162 -0.520844 -0.130381 -0.0826976 -0.111591 0.331035 -0.61799 -0.557623 -0.0767899 -0.751438 -0.320897 -0.968037 -0.661293 0.458316 -0.624483 0.350397 0.83115 0.624323 -0.097391 -0.440035 0.0966422 -0.641363 0.170347 -0.125046 -0.111228 0.511617 -0.334013 0.570573 -0.269582 -0.809309 -0.577819 -0.603167 -0.836101 0.721242 0.506557 0.229085 0.29443 -0.0536092 0.902312 0.193966 -0.341011 0.726694 -0.016637 -0.926579 -0.331377 -0.585198 0.163348 -0.190637 -0.0882751 0.00571996 -0.0278231 0.197643 0.0771591 -0.312631 0.856161 -0.390304 0.689463 0.626738 -0.066845 0.317949 -0.748061 -0.195225 -0.133443 0.586203 -0.400994 -0.800176 -0.36433 -0.937065 -0.662431 -0.573998 0.514857 0.382318 -0.735097 -0.0990516 0.181973 -0.844138 0.595352 0.691998 0.232597 -0.0921527 -0.400293 0.746655 -0.0526423 