0.756748 -0.840733 0.848204 0.708707 -0.916531 -0.260657 0.467085 0.642822 -0.279593 0.711204 0.215327 -0.0593412 -0.717866 0.861775 -0.236433 0.755029 0.71791 -0.891241 0.192907 0.0256307 0.867251 -0.152299 -0.280988 0.0768741 -0.416969 0.0504209 0.0815984 0.091799 -0.0759304 0.264156 -0.12829 -0.762541 0.427947 -0.302564 -0.139848 -0.385486 0.844198 0.906497 0.46768 -0.609042 -0.368304 0.480155 -0.151981 0.217377 -0.710825 0.148589 0.67593 0.918557 0.76305 0.286743 0.542576 -0.486824 -0.516436 0.153764 -0.157651 -0.467197 -0.166072 -0.553329 -0.732375 -0.691152 -0.481611 0.217094 -0.389207 -0.866002 0.969184 -0.971028 -0.502276 0.121965 0.333001 0.42465 0.937136 -0.849027 0.679992 0.296432 0.101509 0.492514 -0.22989 0.101551 0.420357 0.0481871 -0.929651 -0.0179113 -0.21393 0.272007 0.409718 0.192097 -0.89203 0.32045 0.261356 0.323798 0.727755 -0.943427 0.222044 -0.608694 -0.956988 -0.483925 -0.0830862 0.179928 0.458285 -0.958465 0.933847 -0.979286 -0.956576 -0.345103 -0.930243 0.70963 0.813362 0.100932 -0.452389 -0.822425 -0.749472 0.548365 -0.360056 -0.0777757 0.722916 -0.37927 0.869729 0.791708 -0.811698 0.119436 -0.430528 -0.258339 -0.798164 0.0699103 0.481625 -0.368987 -0.0802558 0.885812 -0.629818 -0.368525 -0.53059 -0.527271 -0.505094 0.519339 0.287891 0.502499 -0.794385 -0.0701331 -0.595182 -0.109661 -0.30513 -0.459374 0.833072 0.906319 0.524304 0.400563 -0.969234 0.433273 -0.851365 -0.0724398 -0.92985 0.692105 -0.678615 -0.578683 -0.800176 -0.888677 -0.660853 0.216049 -0.237813 -0.243031 0.135565 -0.438507 0.845962 0.11113 -0.227658 -0.636383 0.896284 -0.527414 0.514152 0.628452 0.589444 -0.423747 -0.856833 -0.567621 -0.637614 -0.980195 -0.847686 0.0563691 0.319541 0.979653 -0.608137 -0.957015 -0.438099 0.903686 0.479236 -0.923345 0.792559 0.059593 0.72763 -0.329548 0.850863 0.0323919 -0.79298 0.248296 -0.852831 -0.636809 -0.719705 0.611626 0.662501 0.66956 0.662667 0.264435 -0.399903 -0.216073 0.156202 0.821949 0.106297 -0.120662 0.701718 0.188441 -0.994392 -0.721756 -0.105767 0.980624 0.314039 0.622781 -0.0590279 -0.969433 0.129651 0.174174 -0.161013 0.091494 0.941569 0.318022 -0.741963 -0.589673 0.164563 0.858228 -0.587117 -0.697037 0.720691 -0.0808516 0.320789 0.409137 0.234882 -0.340546 -0.85575 -0.47187 -0.849199 0.662108 -0.707005 -0.213097 -0.245681 0.627353 -0.670154 -0.932768 0.346274 0.142926 0.879598 0.0337808 0.169376 -0.877338 -0.939046 -0.410447 0.0428342 0.193618 -0.819393 0.0274111 0.144574 -0.828737 -0.697185 -0.682002 -0.178241 -0.855074 -0.811567 0.113934 0.107002 -0.792182 -0.090885 -0.0599471 0.249411 -0.281848 0.56391 -0.550454 -0.191215 -0.374368 0.382086 -0.234196 0.319278 -0.731753 -0.836949 0.450387 -0.689155 -0.454402 0.491199 -0.325446 0.592914 0.362016 0.744779 -0.234441 -0.279109 -0.287523 0.597031 0.489303 -0.617974 -0.566272 0.133537 0.832145 0.66613 0.0405909 0.460564 -0.773418 0.86799 -0.0463788 -0.818272 -0.923538 0.232606 -0.602419 0.783972 -0.335217 -0.467332 0.186029 0.028176 -0.993919 -0.622565 -0.879722 -0.969332 -0.906539 0.160357 0.528303 -0.525931 -0.784148 -0.618566 0.965107 0.109069 -0.681975 0.409749 0.777879 0.977694 0.957614 -0.414918 -0.354631 0.715961 -0.130997 -0.608336 0.117599 -0.679821 -0.223304 0.674707 -0.337416 -0.735454 0.775545 -0.234268 -0.150995 0.53994 0.259399 0.45743 -0.323672 -0.519821 0.991107 0.493894 0.993415 -0.399921 0.834339 0.761107 0.174048 -0.395246 0.666215 -0.00414738 -0.583341 -0.162796 0.0770125 -0.698202 0.0915591 -0.99576 -0.96483 -0.357309 -0.0753379 -0.531188 0.574069 -0.092325 0.202868 0.85236 0.805281 0.84879 -0.253787 0.901282 0.379304 -0.0236114 -0.537492 0.373054 