0.369695 0.313859 -0.885951 -0.785101 -0.243089 0.0257516 0.0890034 0.572028 0.945513 -0.865162 0.151199 0.289934 0.425353 -0.317222 -0.319504 0.0501767 -0.823162 0.0697872 -0.27044 0.854263 -0.330108 0.521376 0.52572 -0.0450298 0.270788 -0.652671 0.732288 0.663364 -0.559213 -0.794674 -0.590825 0.0125992 0.347172 0.0376485 -0.142219 0.532488 0.269589 -0.516574 0.933375 0.44444 0.337037 -0.858994 0.170299 0.808079 0.00903617 0.13763 0.276228 0.0840577 -0.558136 -0.986946 -0.135563 -0.330912 0.998816 0.556967 -0.599844 0.00553538 0.759236 0.102279 0.811383 -0.400658 -0.984952 -0.425185 -0.707218 0.390149 0.353317 -0.132258 -0.680309 -0.624234 -0.41178 -0.427714 -0.687638 0.841989 -0.822919 -0.318026 -0.925259 0.830313 -0.800925 -0.646649 -0.951423 0.842252 -0.919804 0.939862 0.272924 -0.588208 0.257171 -0.752357 -0.230541 0.0138685 -0.540584 -0.648154 -0.639327 0.341008 0.115264 -0.581729 0.175901 0.965292 0.552984 0.89565 0.930061 0.806969 -0.677019 -0.427659 -0.182951 0.464318 -0.72263 -0.664616 0.00293899 0.924309 0.0531211 -0.354913 -0.0940985 -0.688286 -0.73308 -0.554349 0.403897 0.162475 -0.943523 0.483605 -0.254317 -0.432208 0.503641 0.932138 -0.888942 0.135885 0.0384931 0.444627 0.46357 0.500745 0.678744 -0.210467 0.288175 -0.0433594 0.552533 0.66977 -0.552578 -0.276972 -0.546751 -0.426211 0.985128 -0.362452 -0.776 -0.98479 -0.106854 0.291298 0.409403 -0.425888 0.59147 -0.76409 -0.96861 0.584444 -0.192607 -0.196072 -0.737629 0.541414 -0.509932 -0.178884 -0.708395 0.230615 -0.657261 -0.843794 -0.271584 0.790851 0.0401917 -0.39876 -0.0221044 0.0199486 0.211389 -0.50093 0.320314 -0.00428306 0.015839 0.977155 -0.432729 -0.861423 -0.421703 -0.518996 0.00585097 -0.777899 0.709072 0.492559 -0.387245 -0.207273 -0.131726 -0.960169 -0.98812 -0.891617 -0.762078 -0.660767 0.669074 0.981504 -0.902099 0.591664 -0.186629 -0.603115 0.694793 0.666206 0.538302 0.632193 -0.890116 -0.335579 -0.1858 0.208787 0.112028 0.0353522 0.128487 0.448081 0.296902 -0.647381 0.112387 0.335864 -0.0618407 -0.26138 -0.232729 0.513768 0.604683 -0.636154 -0.766827 0.960438 0.598936 0.575628 0.947199 0.266451 0.182794 -0.170183 0.0625838 0.892721 -0.643161 -0.0998503 0.164863 -0.86877 0.0937253 0.394883 -0.527277 -0.233266 -0.543757 -0.658752 0.440673 0.440543 0.408067 -0.802005 0.516877 -0.343116 -0.807777 0.339429 -0.610309 -0.434679 -0.0883401 0.745783 0.970592 0.956973 0.900051 0.176225 -0.459775 -0.586762 -0.648718 -0.276491 -0.00932791 0.0640298 0.665326 -0.353574 0.663787 0.26913 -0.798882 0.557945 -0.461253 -0.454461 0.174785 0.375306 -0.647282 -0.250725 0.470084 0.0657121 -0.736125 0.932407 -0.740824 0.876297 0.0368013 0.277977 0.43617 -0.43744 0.335923 -0.346699 0.120059 -0.948006 0.187125 0.404568 -0.440213 0.975633 0.30857 0.503165 -0.220044 0.818665 -0.742145 -0.165895 0.201887 0.133459 0.0486215 0.407241 -0.46176 0.990473 0.178973 0.732516 -0.480885 0.868958 -0.2307 0.172942 -0.78071 0.855794 -0.0870937 -0.361758 0.562284 -0.951419 0.23737 0.607345 -0.23529 -0.584628 0.738793 -0.0926764 0.412225 0.981818 -0.160621 -0.334762 0.817499 0.471902 -0.545764 0.48055 -0.4177 0.653666 0.767516 -0.786221 0.885684 0.707159 0.0362106 0.669482 -0.427565 0.392571 0.175471 0.896944 -0.415625 -0.611391 -0.561019 -0.932627 -0.387707 0.601355 -0.542657 0.650655 -0.179272 -0.0659093 -0.569491 0.459255 -0.556887 -0.933351 -0.520907 0.540122 -0.987878 0.585786 0.430757 0.938381 -0.527944 -0.845095 -0.51593 