-0.349442 -0.793679 0.884685 -0.280635 -0.246673 0.339555 -0.493771 -0.814612 -0.925522 -0.834928 0.827993 0.566865 0.432833 0.458735 -0.897687 0.879821 0.0615617 0.346813 0.277096 0.606397 -0.938148 0.746778 0.728983 -0.119807 0.417545 -0.435816 0.153478 0.994789 0.703418 -0.429608 -0.866809 0.987095 -0.578417 0.331249 0.887903 -0.230945 -0.645938 -0.550549 -0.559395 -0.716234 -0.309464 -0.00409798 0.0838032 -0.395222 0.619394 -0.716769 0.0466716 0.727154 0.49998 -0.447916 -0.694532 0.249265 -0.805358 -0.154196 0.966813 0.529728 0.858132 -0.707556 -0.0958846 -0.430753 0.76201 -0.344227 -0.498533 -0.255622 -0.846578 0.0445771 -0.931665 -0.3495 -0.0375299 0.19136 -0.0130881 -0.977112 -0.534147 -0.948591 0.750194 0.222206 0.6947 0.568368 -0.75646 -0.49338 0.664352 0.267993 0.44367 -0.167567 0.730069 -0.853463 0.962433 0.205314 -0.659158 -0.592607 0.0516505 -0.928206 -0.274288 -0.317655 -0.55627 -0.442077 -0.0232217 0.511025 0.859562 -0.0937894 -0.729892 0.0980928 -0.433303 -0.64822 -0.304981 -0.851277 -0.47271 0.603237 -0.745552 -0.731927 -0.32801 0.473115 0.711198 -0.859231 -0.928418 0.719857 0.428408 0.183461 -0.270618 0.325536 -0.608074 -0.423929 0.764026 -0.0666618 -0.868411 0.92012 0.72914 -0.214657 -0.216153 -0.495574 0.946149 0.818762 0.46704 -0.15042 -0.0411908 -0.168354 -0.55275 0.743855 0.891542 -0.292544 -0.854548 -0.524944 -0.770272 0.583104 -0.401496 -0.542051 0.508276 -0.742073 -0.35008 0.557498 0.0717682 0.259445 0.711733 0.426337 -0.487602 0.43972 -0.519618 -0.437066 0.986922 0.672827 -0.0329719 -0.784516 -0.656808 -0.565414 -0.798968 0.586167 0.141633 -0.50274 -0.842916 -0.815178 -0.251405 -0.507524 0.118398 -0.164116 0.638547 -0.510084 -0.637685 0.553159 0.391217 -0.317145 0.783772 -0.136115 0.300057 -0.237316 -0.429079 0.161998 -0.267228 -0.798503 -0.894835 0.00943795 0.554031 0.452255 -0.398503 -0.711626 0.215073 0.674867 -0.54593 -0.347411 -0.293506 -0.355783 0.378534 