-0.306533 -0.515312 0.859138 -0.416185 -0.110381 0.426615 -0.269609 0.147377 -0.950809 0.294799 -0.439902 0.975122 -0.966997 0.815102 -0.947415 -0.685407 0.895494 0.147409 -0.755151 -0.0371129 0.125299 0.743741 -0.601225 0.730197 0.588764 -0.0924339 -0.596287 0.37642 -0.183167 0.323019 -0.109369 0.858318 0.318737 0.331433 0.535941 -0.181671 0.675763 0.361411 0.898034 -0.53052 0.27058 -0.506183 0.77345 0.107509 -0.961402 0.619922 -0.410809 0.851304 0.0609441 0.459893 0.878034 -0.511123 -0.407059 -0.751377 -0.92381 -0.82824 0.0113369 -0.0321075 -0.294555 -0.326616 0.189269 0.709979 -0.427854 0.180263 0.466619 -0.720624 -0.502755 0.46463 0.787431 -0.146836 -0.681849 0.79448 -0.983424 0.35174 -0.025826 0.806335 -0.891042 0.995691 -0.423709 -0.689634 0.166291 0.877252 0.255359 -0.281751 0.817102 0.0844548 -0.877395 -0.552327 -0.598728 -0.531099 -0.923806 -0.316037 0.705663 0.97457 -0.925876 0.709159 -0.354969 0.0231739 0.605742 -0.272795 -0.301626 0.144965 0.974027 -0.259311 0.310266 0.718549 -0.813269 -0.0703301 -0.374526 0.430796 -0.56822 0.628695 0.798088 0.538287 0.0443438 -0.68203 0.205315 -0.138574 -0.22672 0.535777 -0.298037 -0.879761 0.21476 0.466983 0.672797 0.892806 -0.706682 0.703268 -0.73484 0.455115 -0.644819 -0.14504 0.1486 0.9997 0.584856 0.117359 0.653472 0.510753 -0.473353 0.740572 0.987823 -0.457428 0.564412 0.889482 0.827067 -0.694977 0.0636773 -0.857153 0.714247 -0.149134 0.235316 -0.659785 0.646904 0.924722 -0.4957 -0.251771 -0.0646099 -0.448051 -0.265956 -0.361284 -0.547024 0.462439 0.213937 -0.219081 -0.566502 0.709336 -0.22658 0.398371 0.57614 -0.248026 0.34528 0.0745367 -0.337917 0.664253 -0.52988 0.189924 0.203785 -0.984086 0.0253457 0.595951 0.452966 0.982796 -0.954446 -0.338671 0.234248 0.682181 0.589219 -0.243363 0.751742 -0.4018 0.241813 